{"learner":{"attributes":{"best_iteration":"99","best_score":"0.07569638150210219"},"feature_names":["SEASON_ID","WL","OPP_TEAM","GAME_YEAR","GAME_MONTH","GAME_DAY","DAYS_SINCE_REF","MONTH_SIN","MONTH_COS","DAY_SIN","DAY_COS","MIN","FGM","FGA","FG_PCT","FG3M","FG3A","FG3_PCT","FTM","FTA","FT_PCT","PTS","OREB","DREB","REB","AST","STL","BLK","TOV","PF","PLUS_MINUS","ROLLING_PTS_20_GAMES","ROLLING_MIN_20_GAMES","ROLLING_FGA_20_GAMES","ROLLING_FGM_20_GAMES","ROLLING_AST_20_GAMES","ROLLING_REB_20_GAMES","ROLLING_STL_20_GAMES","ROLLING_BLK_20_GAMES","ROLLING_TOV_20_GAMES","ROLLING_PF_20_GAMES","ROLLING_PTS_10_GAMES","ROLLING_MIN_10_GAMES","ROLLING_FGA_10_GAMES","ROLLING_FGM_10_GAMES","ROLLING_AST_10_GAMES","ROLLING_REB_10_GAMES","ROLLING_STL_10_GAMES","ROLLING_BLK_10_GAMES","ROLLING_TOV_10_GAMES","ROLLING_PF_10_GAMES","ROLLING_PTS_5_GAMES","ROLLING_MIN_5_GAMES","ROLLING_FGA_5_GAMES","ROLLING_FGM_5_GAMES","ROLLING_AST_5_GAMES","ROLLING_REB_5_GAMES","ROLLING_STL_5_GAMES","ROLLING_BLK_5_GAMES","ROLLING_TOV_5_GAMES","ROLLING_PF_5_GAMES","ROLLING_PTS_3_GAMES","ROLLING_MIN_3_GAMES","ROLLING_FGA_3_GAMES","ROLLING_FGM_3_GAMES","ROLLING_AST_3_GAMES","ROLLING_REB_3_GAMES","ROLLING_STL_3_GAMES","ROLLING_BLK_3_GAMES","ROLLING_TOV_3_GAMES","ROLLING_PF_3_GAMES","CUM_PTS_SEASON","CUM_MIN_SEASON","CUM_FGM_SEASON","CUM_FGA_SEASON","CUM_AST_SEASON","CUM_REB_SEASON"],"feature_types":["int","int","int","int","int","int","int","float","float","float","float","int","int","int","float","int","int","float","int","int","float","int","int","int","int","int","int","int","int","int","int","float","float","float","float","float","float","float","float","float","float","float","float","float","float","float","float","float","float","float","float","float","float","float","float","float","float","float","float","float","float","float","float","float","float","float","float","float","float","float","float","int","int","int","int","int","int"],"gradient_booster":{"model":{"gbtree_model_param":{"num_parallel_tree":"1","num_trees":"100"},"iteration_indptr":[0,1,2,3,4,5,6,7,8,9,10,11,12,13,14,15,16,17,18,19,20,21,22,23,24,25,26,27,28,29,30,31,32,33,34,35,36,37,38,39,40,41,42,43,44,45,46,47,48,49,50,51,52,53,54,55,56,57,58,59,60,61,62,63,64,65,66,67,68,69,70,71,72,73,74,75,76,77,78,79,80,81,82,83,84,85,86,87,88,89,90,91,92,93,94,95,96,97,98,99,100],"tree_info":[0,0,0,0,0,0,0,0,0,0,0,0,0,0,0,0,0,0,0,0,0,0,0,0,0,0,0,0,0,0,0,0,0,0,0,0,0,0,0,0,0,0,0,0,0,0,0,0,0,0,0,0,0,0,0,0,0,0,0,0,0,0,0,0,0,0,0,0,0,0,0,0,0,0,0,0,0,0,0,0,0,0,0,0,0,0,0,0,0,0,0,0,0,0,0,0,0,0,0,0],"trees":[{"base_weights":[-0E0,-5.1833234E0,1.0523629E1,-8.863883E0,-1.4523243E0,7.014114E0,1.8797281E1,-1.0929937E1,-7.1714253E0,-3.2637117E0,6.594684E-1,5.062447E0,1.0022834E1,1.6406948E1,2.6864574E1,-1.1770724E0,-9.871431E0,-8.233874E0,-6.221251E0,-4.217556E0,-2.258247E0,-2.8581876E-1,1.7238737E0,3.6991417E0,6.150552E0,8.68914E0,1.1147495E1,1.4555534E1,1.896441E1,2.4512297E1,3.2946136E1,-1.0727905E0,-9.7696656E-1,-8.7675446E-1,-7.7688724E-1,-6.768829E-1,-5.770198E-1,-4.7691318E-1,-3.7705317E-1,-2.7700576E-1,-1.7706579E-1,-7.707171E-2,2.213284E-2,1.22051656E-1,2.2201121E-1,3.219076E-1,4.2179653E-1,5.217111E-1,6.6848125E0,8.2126313E-1,9.2102736E-1,1.0208253E0,1.1689019E1,1.3683938E0,1.5658832E0,1.7720091E0,2.0111158E0,2.3074768E0,2.6371472E0,3.0951872E0,4.0008335E0,6.2158835E-1,7.213784E-1,1.12053E0,1.2202106E0],"categories":[],"categories_nodes":[],"categories_segments":[],"categories_sizes":[],"default_left":[0,0,0,0,0,0,0,0,0,0,0,0,0,0,0,0,0,0,0,0,0,0,0,0,0,0,0,0,0,0,0,0,0,0,0,0,0,0,0,0,0,0,0,0,0,0,0,0,0,0,0,0,0,0,0,0,0,0,0,0,0,0,0,0,0],"id":0,"left_children":[1,3,5,7,9,11,13,15,17,19,21,23,25,27,29,-1,31,33,35,37,39,41,43,45,47,49,51,53,55,57,59,-1,-1,-1,-1,-1,-1,-1,-1,-1,-1,-1,-1,-1,-1,-1,-1,-1,61,-1,-1,-1,63,-1,-1,-1,-1,-1,-1,-1,-1,-1,-1,-1,-1],"loss_changes":[3.5420882E6,5.9732925E5,6.2183325E5,7.6318375E4,8.2684734E4,8.816644E4,1.221745E5,8.44E3,1.19628125E4,1.1083383E4,1.0051406E4,1.3425328E4,8.5815E3,2.2713125E4,1.944675E4,0E0,7.153125E1,1.1755938E3,1.4081094E3,1.3671562E3,1.3649023E3,1.3038488E3,1.136123E3,9.2327344E2,2.376E3,4.2457812E2,1.2908438E3,2.246375E3,2.209125E3,1.716625E3,3.7137812E3,0E0,0E0,0E0,0E0,0E0,0E0,0E0,0E0,0E0,0E0,0E0,0E0,0E0,0E0,0E0,0E0,0E0,6.186094E2,0E0,0E0,0E0,1.300625E2,0E0,0E0,0E0,0E0,0E0,0E0,0E0,0E0,0E0,0E0,0E0,0E0],"parents":[2147483647,0,0,1,1,2,2,3,3,4,4,5,5,6,6,7,7,8,8,9,9,10,10,11,11,12,12,13,13,14,14,16,16,17,17,18,18,19,19,20,20,21,21,22,22,23,23,24,24,25,25,26,26,27,27,28,28,29,29,30,30,48,48,52,52],"right_children":[2,4,6,8,10,12,14,16,18,20,22,24,26,28,30,-1,32,34,36,38,40,42,44,46,48,50,52,54,56,58,60,-1,-1,-1,-1,-1,-1,-1,-1,-1,-1,-1,-1,-1,-1,-1,-1,-1,62,-1,-1,-1,64,-1,-1,-1,-1,-1,-1,-1,-1,-1,-1,-1,-1],"split_conditions":[1.5E1,7E0,2.5E1,3E0,1.1E1,2E1,3.4E1,1E0,5E0,9E0,1.3E1,1.7E1,2.2E1,2.9E1,4.1E1,-1.1770724E0,2E0,4E0,6E0,8E0,1E1,1.2E1,1.4E1,1.6E1,1.8E1,2.1E1,2.3E1,2.7E1,3.1E1,3.7E1,4.8E1,-1.0727905E0,-9.7696656E-1,-8.7675446E-1,-7.7688724E-1,-6.768829E-1,-5.770198E-1,-4.7691318E-1,-3.7705317E-1,-2.7700576E-1,-1.7706579E-1,-7.707171E-2,2.213284E-2,1.22051656E-1,2.2201121E-1,3.219076E-1,4.2179653E-1,5.217111E-1,1.9E1,8.2126313E-1,9.2102736E-1,1.0208253E0,2.4E1,1.3683938E0,1.5658832E0,1.7720091E0,2.0111158E0,2.3074768E0,2.6371472E0,3.0951872E0,4.0008335E0,6.2158835E-1,7.213784E-1,1.12053E0,1.2202106E0],"split_indices":[21,21,21,21,21,21,21,21,21,21,21,21,21,21,21,0,21,21,21,21,21,21,21,21,21,21,21,21,21,21,21,0,0,0,0,0,0,0,0,0,0,0,0,0,0,0,0,0,21,0,0,0,21,0,0,0,0,0,0,0,0,0,0,0,0],"split_type":[0,0,0,0,0,0,0,0,0,0,0,0,0,0,0,0,0,0,0,0,0,0,0,0,0,0,0,0,0,0,0,0,0,0,0,0,0,0,0,0,0,0,0,0,0,0,0,0,0,0,0,0,0,0,0,0,0,0,0,0,0,0,0,0,0],"sum_hessian":[6.4934E4,4.3506E4,2.1428E4,2.1899E4,2.1607E4,1.5048E4,6.38E3,9.856E3,1.2043E4,1.1633E4,9.974E3,9.131E3,5.917E3,4.925E3,1.455E3,5.482E3,4.374E3,5.677E3,6.366E3,5.963E3,5.67E3,5.278E3,4.696E3,4.059E3,5.072E3,2.715E3,3.202E3,2.863E3,2.062E3,1.054E3,4.01E2,4.43E2,3.931E3,2.625E3,3.052E3,2.859E3,3.507E3,2.655E3,3.308E3,2.754E3,2.916E3,2.708E3,2.57E3,2.343E3,2.353E3,2.122E3,1.937E3,1.857E3,3.215E3,1.437E3,1.278E3,1.185E3,2.017E3,1.612E3,1.251E3,1.001E3,1.061E3,6.05E2,4.49E2,3.18E2,8.3E1,1.721E3,1.494E3,1.06E3,9.57E2],"tree_param":{"num_deleted":"0","num_feature":"77","num_nodes":"65","size_leaf_vector":"1"}},{"base_weights":[2.8196452E-4,-4.6653395E0,9.473294E0,-7.9780483E0,-1.307185E0,6.6098304E0,1.769887E1,-9.837473E0,-6.4547734E0,-2.9377105E0,5.9365094E-1,4.556926E0,9.377751E0,1.56191E1,2.499791E1,-1.0527186E1,-8.792947E-1,-7.4109545E0,-5.59948E0,-3.7961109E0,-2.0326784E0,-2.5705767E-1,1.5517726E0,3.3296566E0,5.536258E0,8.241422E0,1.0917145E1,1.3976108E1,1.7859255E1,2.3316067E1,3.1789957E1,-1.0593866E0,-9.657531E-1,-7.8911245E-1,-6.99224E-1,-6.092183E-1,-5.1933426E-1,-4.292398E-1,-3.3935925E-1,-2.4931519E-1,-1.5936528E-1,-6.936734E-2,1.9920412E-2,1.0985174E-1,1.9981949E-1,2.8973195E-1,3.7963864E-1,4.6956807E-1,6.01706E0,7.391939E-1,8.729779E0,1.0085827E0,1.1393688E0,1.321991E0,1.4998307E0,1.6752058E0,1.8962554E0,2.2065213E0,2.5727644E0,2.9371734E0,3.6458359E0,5.594656E-1,6.4928883E-1,8.2899666E-1,9.188288E-1],"categories":[],"categories_nodes":[],"categories_segments":[],"categories_sizes":[],"default_left":[0,0,0,0,0,0,0,0,0,0,0,0,0,0,0,0,0,0,0,0,0,0,0,0,0,0,0,0,0,0,0,0,0,0,0,0,0,0,0,0,0,0,0,0,0,0,0,0,0,0,0,0,0,0,0,0,0,0,0,0,0,0,0,0,0],"id":1,"left_children":[1,3,5,7,9,11,13,15,17,19,21,23,25,27,29,31,-1,33,35,37,39,41,43,45,47,49,51,53,55,57,59,-1,-1,-1,-1,-1,-1,-1,-1,-1,-1,-1,-1,-1,-1,-1,-1,-1,61,-1,63,-1,-1,-1,-1,-1,-1,-1,-1,-1,-1,-1,-1,-1,-1],"loss_changes":[2.8700562E6,4.8389412E5,5.0437062E5,6.18035E4,6.699619E4,9.015481E4,8.3181E4,6.8155E3,9.6781875E3,8.972219E3,8.143791E3,1.0868719E4,1.1555625E4,1.5291625E4,1.2689625E4,3.88125E1,0E0,9.375625E2,1.1295938E3,1.0999609E3,1.1016074E3,1.0567181E3,9.1724414E2,7.413125E2,1.914875E3,1.3925938E3,8.060625E2,1.4465938E3,1.54475E3,1.9286875E3,9.6896875E2,0E0,0E0,0E0,0E0,0E0,0E0,0E0,0E0,0E0,0E0,0E0,0E0,0E0,0E0,0E0,0E0,0E0,4.891953E2,0E0,2.4592188E2,0E0,0E0,0E0,0E0,0E0,0E0,0E0,0E0,0E0,0E0,0E0,0E0,0E0,0E0],"parents":[2147483647,0,0,1,1,2,2,3,3,4,4,5,5,6,6,7,7,8,8,9,9,10,10,11,11,12,12,13,13,14,14,15,15,17,17,18,18,19,19,20,20,21,21,22,22,23,23,24,24,25,25,26,26,27,27,28,28,29,29,30,30,48,48,50,50],"right_children":[2,4,6,8,10,12,14,16,18,20,22,24,26,28,30,32,-1,34,36,38,40,42,44,46,48,50,52,54,56,58,60,-1,-1,-1,-1,-1,-1,-1,-1,-1,-1,-1,-1,-1,-1,-1,-1,-1,62,-1,64,-1,-1,-1,-1,-1,-1,-1,-1,-1,-1,-1,-1,-1,-1],"split_conditions":[1.5E1,7E0,2.6E1,3E0,1.1E1,2E1,3.5E1,2E0,5E0,9E0,1.3E1,1.7E1,2.3E1,3E1,4.3E1,1E0,-8.792947E-1,4E0,6E0,8E0,1E1,1.2E1,1.4E1,1.6E1,1.8E1,2.1E1,2.4E1,2.8E1,3.2E1,3.9E1,4.9E1,-1.0593866E0,-9.657531E-1,-7.8911245E-1,-6.99224E-1,-6.092183E-1,-5.1933426E-1,-4.292398E-1,-3.3935925E-1,-2.4931519E-1,-1.5936528E-1,-6.936734E-2,1.9920412E-2,1.0985174E-1,1.9981949E-1,2.8973195E-1,3.7963864E-1,4.6956807E-1,1.9E1,7.391939E-1,2.2E1,1.0085827E0,1.1393688E0,1.321991E0,1.4998307E0,1.6752058E0,1.8962554E0,2.2065213E0,2.5727644E0,2.9371734E0,3.6458359E0,5.594656E-1,6.4928883E-1,8.2899666E-1,9.188288E-1],"split_indices":[21,21,21,21,21,21,21,21,21,21,21,21,21,21,21,18,0,21,21,21,21,21,21,21,21,21,21,21,21,21,21,0,0,0,0,0,0,0,0,0,0,0,0,0,0,0,0,0,21,0,21,0,0,0,0,0,0,0,0,0,0,0,0,0,0],"split_type":[0,0,0,0,0,0,0,0,0,0,0,0,0,0,0,0,0,0,0,0,0,0,0,0,0,0,0,0,0,0,0,0,0,0,0,0,0,0,0,0,0,0,0,0,0,0,0,0,0,0,0,0,0,0,0,0,0,0,0,0,0,0,0,0,0],"sum_hessian":[6.4934E4,4.3506E4,2.1428E4,2.1899E4,2.1607E4,1.5897E4,5.531E3,9.856E3,1.2043E4,1.1633E4,9.974E3,9.131E3,6.766E3,4.308E3,1.223E3,5.925E3,3.931E3,5.677E3,6.366E3,5.963E3,5.67E3,5.278E3,4.696E3,4.059E3,5.072E3,3.9E3,2.866E3,2.492E3,1.816E3,9.85E2,2.38E2,5.482E3,4.43E2,2.625E3,3.052E3,2.859E3,3.507E3,2.655E3,3.308E3,2.754E3,2.916E3,2.708E3,2.57E3,2.343E3,2.353E3,2.122E3,1.937E3,1.857E3,3.215E3,1.437E3,2.463E3,1.06E3,1.806E3,1.446E3,1.046E3,9.19E2,8.97E2,6.58E2,3.27E2,1.63E2,7.5E1,1.721E3,1.494E3,1.278E3,1.185E3],"tree_param":{"num_deleted":"0","num_feature":"77","num_nodes":"65","size_leaf_vector":"1"}},{"base_weights":[6.587239E-4,-4.199137E0,8.527913E0,-7.18077E0,-1.1765552E0,5.68088E0,1.5239473E1,-8.854224E0,-5.8097625E0,-2.6442983E0,5.344122E-1,4.101928E0,8.114694E0,1.3031388E1,2.1019327E1,-9.474978E0,-7.913876E-1,-6.6702976E0,-5.0398664E0,-3.4167962E0,-1.8296586E0,-2.3117176E-1,1.3968741E0,2.9971023E0,4.9833574E0,7.0400577E0,9.020281E0,1.1798691E1,1.5026503E1,1.9049654E1,2.60979E1,-9.534672E-1,-8.6939526E-1,-7.1023124E-1,-6.2932456E-1,-5.483178E-1,-4.6741566E-1,-3.8633192E-1,-3.0543357E-1,-2.2439273E-1,-1.4343417E-1,-6.243316E-2,1.7929152E-2,9.887125E-2,1.7984603E-1,2.6077244E-1,3.4169433E-1,4.226365E-1,5.4160404E0,6.6532594E-1,7.461619E-1,8.270233E-1,9.451667E0,1.1091344E0,1.2692583E0,1.4359978E0,1.5875685E0,1.7878596E0,2.0599878E0,2.4306285E0,3.136512E0,5.035515E-1,5.844033E-1,9.078194E-1,9.844989E-1],"categories":[],"categories_nodes":[],"categories_segments":[],"categories_sizes":[],"default_left":[0,0,0,0,0,0,0,0,0,0,0,0,0,0,0,0,0,0,0,0,0,0,0,0,0,0,0,0,0,0,0,0,0,0,0,0,0,0,0,0,0,0,0,0,0,0,0,0,0,0,0,0,0,0,0,0,0,0,0,0,0,0,0,0,0],"id":2,"left_children":[1,3,5,7,9,11,13,15,17,19,21,23,25,27,29,31,-1,33,35,37,39,41,43,45,47,49,51,53,55,57,59,-1,-1,-1,-1,-1,-1,-1,-1,-1,-1,-1,-1,-1,-1,-1,-1,-1,61,-1,-1,-1,63,-1,-1,-1,-1,-1,-1,-1,-1,-1,-1,-1,-1],"loss_changes":[2.3255785E6,3.9200312E5,4.0917025E5,5.00475E4,5.428583E4,5.767597E4,8.08225E4,5.5049375E3,7.8286875E3,7.2626406E3,6.598342E3,8.798234E3,5.5351562E3,1.09191875E4,1.6666875E4,1.1125E1,0E0,7.462656E2,9.050156E2,8.8428125E2,8.8872266E2,8.56475E2,7.4024414E2,5.945586E2,1.5422891E3,2.5207812E2,7.8096875E2,1.4322812E3,4.646875E2,1.5597188E3,3.2860938E3,0E0,0E0,0E0,0E0,0E0,0E0,0E0,0E0,0E0,0E0,0E0,0E0,0E0,0E0,0E0,0E0,0E0,3.8553906E2,0E0,0E0,0E0,1.7828125E1,0E0,0E0,0E0,0E0,0E0,0E0,0E0,0E0,0E0,0E0,0E0,0E0],"parents":[2147483647,0,0,1,1,2,2,3,3,4,4,5,5,6,6,7,7,8,8,9,9,10,10,11,11,12,12,13,13,14,14,15,15,17,17,18,18,19,19,20,20,21,21,22,22,23,23,24,24,25,25,26,26,27,27,28,28,29,29,30,30,48,48,52,52],"right_children":[2,4,6,8,10,12,14,16,18,20,22,24,26,28,30,32,-1,34,36,38,40,42,44,46,48,50,52,54,56,58,60,-1,-1,-1,-1,-1,-1,-1,-1,-1,-1,-1,-1,-1,-1,-1,-1,-1,62,-1,-1,-1,64,-1,-1,-1,-1,-1,-1,-1,-1,-1,-1,-1,-1],"split_conditions":[1.5E1,7E0,2.5E1,3E0,1.1E1,2E1,3.3E1,2E0,5E0,9E0,1.3E1,1.7E1,2.2E1,2.9E1,4E1,1E0,-7.913876E-1,4E0,6E0,8E0,1E1,1.2E1,1.4E1,1.6E1,1.8E1,2.1E1,2.3E1,2.7E1,3.1E1,3.6E1,4.6E1,-9.534672E-1,-8.6939526E-1,-7.1023124E-1,-6.2932456E-1,-5.483178E-1,-4.6741566E-1,-3.8633192E-1,-3.0543357E-1,-2.2439273E-1,-1.4343417E-1,-6.243316E-2,1.7929152E-2,9.887125E-2,1.7984603E-1,2.6077244E-1,3.4169433E-1,4.226365E-1,1.9E1,6.6532594E-1,7.461619E-1,8.270233E-1,2.4E1,1.1091344E0,1.2692583E0,1.4359978E0,1.5875685E0,1.7878596E0,2.0599878E0,2.4306285E0,3.136512E0,5.035515E-1,5.844033E-1,9.078194E-1,9.844989E-1],"split_indices":[21,21,21,21,21,21,21,21,21,21,21,21,21,21,21,18,0,21,21,21,21,21,21,21,21,21,21,21,21,21,21,0,0,0,0,0,0,0,0,0,0,0,0,0,0,0,0,0,21,0,0,0,21,0,0,0,0,0,0,0,0,0,0,0,0],"split_type":[0,0,0,0,0,0,0,0,0,0,0,0,0,0,0,0,0,0,0,0,0,0,0,0,0,0,0,0,0,0,0,0,0,0,0,0,0,0,0,0,0,0,0,0,0,0,0,0,0,0,0,0,0,0,0,0,0,0,0,0,0,0,0,0,0],"sum_hessian":[6.4934E4,4.3506E4,2.1428E4,2.1899E4,2.1607E4,1.5048E4,6.38E3,9.856E3,1.2043E4,1.1633E4,9.974E3,9.131E3,5.917E3,4.62E3,1.76E3,5.925E3,3.931E3,5.677E3,6.366E3,5.963E3,5.67E3,5.278E3,4.696E3,4.059E3,5.072E3,2.715E3,3.202E3,2.863E3,1.757E3,1.273E3,4.87E2,5.482E3,4.43E2,2.625E3,3.052E3,2.859E3,3.507E3,2.655E3,3.308E3,2.754E3,2.916E3,2.708E3,2.57E3,2.343E3,2.353E3,2.122E3,1.937E3,1.857E3,3.215E3,1.437E3,1.278E3,1.185E3,2.017E3,1.612E3,1.251E3,1.001E3,7.56E2,7.36E2,5.37E2,3.69E2,1.18E2,1.721E3,1.494E3,1.06E3,9.57E2],"tree_param":{"num_deleted":"0","num_feature":"77","num_nodes":"65","size_leaf_vector":"1"}},{"base_weights":[9.511977E-4,-3.7795405E0,7.6768975E0,-6.463194E0,-1.0589842E0,5.3538303E0,1.4349792E1,-7.9692693E0,-5.229231E0,-2.3802176E0,4.810948E-1,3.6924047E0,7.5936384E0,1.2659549E1,2.0280272E1,-8.527957E-1,-7.12269E-1,-6.00368E0,-4.536196E0,-3.0754006E0,-1.6469337E0,-2.0787351E-1,1.257459E0,2.6977868E0,4.485714E0,6.6776733E0,8.833815E0,1.1328318E1,1.4473583E1,1.8642881E1,2.5015537E1,-6.392352E-1,-5.664127E-1,-4.9350515E-1,-4.206874E-1,-3.4771332E-1,-2.7489945E-1,-2.0196156E-1,-1.2909564E-1,-5.6192137E-2,1.6136942E-2,8.898834E-2,1.618691E-1,2.3470743E-1,3.075426E-1,3.8039565E-1,4.875086E0,5.9883964E-1,7.073169E0,8.1712306E-1,9.212436E-1,1.0714884E0,1.215574E0,1.3578994E0,1.5362835E0,1.751092E0,2.006989E0,2.3824995E0,3.220607E0,4.5322558E-1,5.260021E-1,6.716041E-1,7.443907E-1],"categories":[],"categories_nodes":[],"categories_segments":[],"categories_sizes":[],"default_left":[0,0,0,0,0,0,0,0,0,0,0,0,0,0,0,0,0,0,0,0,0,0,0,0,0,0,0,0,0,0,0,0,0,0,0,0,0,0,0,0,0,0,0,0,0,0,0,0,0,0,0,0,0,0,0,0,0,0,0,0,0,0,0],"id":3,"left_children":[1,3,5,7,9,11,13,15,17,19,21,23,25,27,29,-1,-1,31,33,35,37,39,41,43,45,47,49,51,53,55,57,-1,-1,-1,-1,-1,-1,-1,-1,-1,-1,-1,-1,-1,-1,-1,59,-1,61,-1,-1,-1,-1,-1,-1,-1,-1,-1,-1,-1,-1,-1,-1],"loss_changes":[1.8844072E6,3.1756388E5,3.3190962E5,4.0526125E4,4.398817E4,5.9019875E4,5.486625E4,4.444875E3,6.331625E3,5.878336E3,5.346288E3,7.121578E3,7.4729375E3,9.9838125E3,8.5873125E3,0E0,0E0,5.9259375E2,7.241328E2,7.1022656E2,7.166387E2,6.9421826E2,5.971421E2,4.7627344E2,1.2413203E3,8.9046875E2,4.70125E2,9.064375E2,9.4740625E2,7.5078125E2,1.3261719E3,0E0,0E0,0E0,0E0,0E0,0E0,0E0,0E0,0E0,0E0,0E0,0E0,0E0,0E0,0E0,3.0264062E2,0E0,1.3464062E2,0E0,0E0,0E0,0E0,0E0,0E0,0E0,0E0,0E0,0E0,0E0,0E0,0E0,0E0],"parents":[2147483647,0,0,1,1,2,2,3,3,4,4,5,5,6,6,7,7,8,8,9,9,10,10,11,11,12,12,13,13,14,14,17,17,18,18,19,19,20,20,21,21,22,22,23,23,24,24,25,25,26,26,27,27,28,28,29,29,30,30,46,46,48,48],"right_children":[2,4,6,8,10,12,14,16,18,20,22,24,26,28,30,-1,-1,32,34,36,38,40,42,44,46,48,50,52,54,56,58,-1,-1,-1,-1,-1,-1,-1,-1,-1,-1,-1,-1,-1,-1,-1,60,-1,62,-1,-1,-1,-1,-1,-1,-1,-1,-1,-1,-1,-1,-1,-1],"split_conditions":[1.5E1,7E0,2.6E1,3E0,1.1E1,2E1,3.5E1,2E0,5E0,9E0,1.3E1,1.7E1,2.3E1,3E1,4.2E1,-8.527957E-1,-7.12269E-1,4E0,6E0,8E0,1E1,1.2E1,1.4E1,1.6E1,1.8E1,2.1E1,2.4E1,2.8E1,3.2E1,3.8E1,5.1E1,-6.392352E-1,-5.664127E-1,-4.9350515E-1,-4.206874E-1,-3.4771332E-1,-2.7489945E-1,-2.0196156E-1,-1.2909564E-1,-5.6192137E-2,1.6136942E-2,8.898834E-2,1.618691E-1,2.3470743E-1,3.075426E-1,3.8039565E-1,1.9E1,5.9883964E-1,2.2E1,8.1712306E-1,9.212436E-1,1.0714884E0,1.215574E0,1.3578994E0,1.5362835E0,1.751092E0,2.006989E0,2.3824995E0,3.220607E0,4.5322558E-1,5.260021E-1,6.716041E-1,7.443907E-1],"split_indices":[21,21,21,21,21,21,21,21,21,21,21,21,21,21,21,0,0,21,21,21,21,21,21,21,21,21,21,21,21,21,21,0,0,0,0,0,0,0,0,0,0,0,0,0,0,0,21,0,21,0,0,0,0,0,0,0,0,0,0,0,0,0,0],"split_type":[0,0,0,0,0,0,0,0,0,0,0,0,0,0,0,0,0,0,0,0,0,0,0,0,0,0,0,0,0,0,0,0,0,0,0,0,0,0,0,0,0,0,0,0,0,0,0,0,0,0,0,0,0,0,0,0,0,0,0,0,0,0,0],"sum_hessian":[6.4934E4,4.3506E4,2.1428E4,2.1899E4,2.1607E4,1.5897E4,5.531E3,9.856E3,1.2043E4,1.1633E4,9.974E3,9.131E3,6.766E3,4.308E3,1.223E3,5.925E3,3.931E3,5.677E3,6.366E3,5.963E3,5.67E3,5.278E3,4.696E3,4.059E3,5.072E3,3.9E3,2.866E3,2.492E3,1.816E3,9.14E2,3.09E2,2.625E3,3.052E3,2.859E3,3.507E3,2.655E3,3.308E3,2.754E3,2.916E3,2.708E3,2.57E3,2.343E3,2.353E3,2.122E3,1.937E3,1.857E3,3.215E3,1.437E3,2.463E3,1.06E3,1.806E3,1.446E3,1.046E3,9.19E2,8.97E2,5.21E2,3.93E2,2.7E2,3.9E1,1.721E3,1.494E3,1.278E3,1.185E3],"tree_param":{"num_deleted":"0","num_feature":"77","num_nodes":"63","size_leaf_vector":"1"}},{"base_weights":[1.2375991E-3,-3.401849E0,6.910944E0,-5.8172708E0,-9.531663E-1,4.6011643E0,1.2355695E1,-7.1726027E0,-4.7067327E0,-2.1425354E0,4.3310675E-1,3.3238106E0,6.569768E0,1.0773199E1,1.7694307E1,-7.728739E-1,-6.4716965E-1,-5.4037004E0,-4.0828767E0,-2.7681324E0,-1.4824748E0,-1.8690427E-1,1.1319795E0,2.4283876E0,4.037805E0,5.704082E0,7.2986574E0,9.56485E0,1.2440643E1,1.6361792E1,2.2535282E1,-5.75336E-1,-5.0978994E-1,-4.4417188E-1,-3.7863064E-1,-3.1295505E-1,-2.4741784E-1,-1.8177275E-1,-1.16190456E-1,-5.057497E-2,1.4523856E-2,8.009331E-2,1.4568906E-1,2.1124771E-1,2.7680418E-1,3.4237653E-1,4.388193E0,5.389973E-1,6.044962E-1,6.7001444E-1,7.6418376E-1,8.991154E-1,1.0288337E0,1.1636766E0,1.3177974E0,1.5435258E0,1.8067995E0,2.1132476E0,2.764437E0,4.079294E-1,4.7343707E-1],"categories":[],"categories_nodes":[],"categories_segments":[],"categories_sizes":[],"default_left":[0,0,0,0,0,0,0,0,0,0,0,0,0,0,0,0,0,0,0,0,0,0,0,0,0,0,0,0,0,0,0,0,0,0,0,0,0,0,0,0,0,0,0,0,0,0,0,0,0,0,0,0,0,0,0,0,0,0,0,0,0],"id":4,"left_children":[1,3,5,7,9,11,13,15,17,19,21,23,25,27,29,-1,-1,31,33,35,37,39,41,43,45,47,49,51,53,55,57,-1,-1,-1,-1,-1,-1,-1,-1,-1,-1,-1,-1,-1,-1,-1,59,-1,-1,-1,-1,-1,-1,-1,-1,-1,-1,-1,-1,-1,-1],"loss_changes":[1.5269616E6,2.5725338E5,2.6926844E5,3.2810125E4,3.5645082E4,3.772147E4,5.3433438E4,3.6502812E3,5.1199062E3,4.7574414E3,4.3319175E3,5.7638594E3,3.5625312E3,9.586125E3,8.634531E3,0E0,0E0,4.6928125E2,5.784922E2,5.6983594E2,5.7756445E2,5.6273645E2,4.814673E2,3.8098828E2,9.983203E2,1.4388281E2,4.6326562E2,9.034219E2,8.213125E2,1.1993125E3,1.1498125E3,0E0,0E0,0E0,0E0,0E0,0E0,0E0,0E0,0E0,0E0,0E0,0E0,0E0,0E0,0E0,2.3644922E2,0E0,0E0,0E0,0E0,0E0,0E0,0E0,0E0,0E0,0E0,0E0,0E0,0E0,0E0],"parents":[2147483647,0,0,1,1,2,2,3,3,4,4,5,5,6,6,7,7,8,8,9,9,10,10,11,11,12,12,13,13,14,14,17,17,18,18,19,19,20,20,21,21,22,22,23,23,24,24,25,25,26,26,27,27,28,28,29,29,30,30,46,46],"right_children":[2,4,6,8,10,12,14,16,18,20,22,24,26,28,30,-1,-1,32,34,36,38,40,42,44,46,48,50,52,54,56,58,-1,-1,-1,-1,-1,-1,-1,-1,-1,-1,-1,-1,-1,-1,-1,60,-1,-1,-1,-1,-1,-1,-1,-1,-1,-1,-1,-1,-1,-1],"split_conditions":[1.5E1,7E0,2.5E1,3E0,1.1E1,2E1,3.4E1,1E0,5E0,9E0,1.3E1,1.7E1,2.2E1,2.9E1,4.2E1,-7.728739E-1,-6.4716965E-1,4E0,6E0,8E0,1E1,1.2E1,1.4E1,1.6E1,1.8E1,2.1E1,2.3E1,2.7E1,3.1E1,3.8E1,5E1,-5.75336E-1,-5.0978994E-1,-4.4417188E-1,-3.7863064E-1,-3.1295505E-1,-2.4741784E-1,-1.8177275E-1,-1.16190456E-1,-5.057497E-2,1.4523856E-2,8.009331E-2,1.4568906E-1,2.1124771E-1,2.7680418E-1,3.4237653E-1,1.9E1,5.389973E-1,6.044962E-1,6.7001444E-1,7.6418376E-1,8.991154E-1,1.0288337E0,1.1636766E0,1.3177974E0,1.5435258E0,1.8067995E0,2.1132476E0,2.764437E0,4.079294E-1,4.7343707E-1],"split_indices":[21,21,21,21,21,21,21,21,21,21,21,21,21,21,21,0,0,21,21,21,21,21,21,21,21,21,21,21,21,21,21,0,0,0,0,0,0,0,0,0,0,0,0,0,0,0,21,0,0,0,0,0,0,0,0,0,0,0,0,0,0],"split_type":[0,0,0,0,0,0,0,0,0,0,0,0,0,0,0,0,0,0,0,0,0,0,0,0,0,0,0,0,0,0,0,0,0,0,0,0,0,0,0,0,0,0,0,0,0,0,0,0,0,0,0,0,0,0,0,0,0,0,0,0,0],"sum_hessian":[6.4934E4,4.3506E4,2.1428E4,2.1899E4,2.1607E4,1.5048E4,6.38E3,9.856E3,1.2043E4,1.1633E4,9.974E3,9.131E3,5.917E3,4.925E3,1.455E3,5.482E3,4.374E3,5.677E3,6.366E3,5.963E3,5.67E3,5.278E3,4.696E3,4.059E3,5.072E3,2.715E3,3.202E3,2.863E3,2.062E3,1.146E3,3.09E2,2.625E3,3.052E3,2.859E3,3.507E3,2.655E3,3.308E3,2.754E3,2.916E3,2.708E3,2.57E3,2.343E3,2.353E3,2.122E3,1.937E3,1.857E3,3.215E3,1.437E3,1.278E3,1.185E3,2.017E3,1.612E3,1.251E3,1.001E3,1.061E3,7.53E2,3.93E2,2.48E2,6.1E1,1.721E3,1.494E3],"tree_param":{"num_deleted":"0","num_feature":"77","num_nodes":"61","size_leaf_vector":"1"}},{"base_weights":[1.4362881E-3,-3.0619168E0,6.221386E0,-5.235924E0,-8.579268E-1,4.3365817E0,1.1635052E1,-6.455588E0,-4.2364664E0,-1.9286134E0,3.899155E-1,2.992055E0,6.1488886E0,1.0259681E1,1.6459267E1,-6.911959E-1,-5.763597E-1,-4.863697E0,-3.6748755E0,-2.4915812E0,-1.3344558E0,-1.6803093E-1,1.0190425E0,2.1859155E0,3.6346598E0,5.410819E0,7.147515E0,9.182231E0,1.1726836E1,1.5457209E1,2.1880003E1,-5.178243E-1,-4.5882758E-1,-3.997702E-1,-3.4077838E-1,-2.8167135E-1,-2.2268355E-1,-1.6360204E-1,-1.0457535E-1,-4.5519315E-2,1.30720725E-2,7.2087385E-2,1.3112634E-1,1.901329E-1,2.4913807E-1,3.081573E-1,3.9499586E0,4.85135E-1,5.731073E0,6.591413E-1,7.4645466E-1,8.684414E-1,9.8519135E-1,1.099382E0,1.2453617E0,1.4489805E0,1.70679E0,2.0620122E0,2.7940755E0,3.6716017E-1,4.2612502E-1,5.440938E-1,6.030695E-1],"categories":[],"categories_nodes":[],"categories_segments":[],"categories_sizes":[],"default_left":[0,0,0,0,0,0,0,0,0,0,0,0,0,0,0,0,0,0,0,0,0,0,0,0,0,0,0,0,0,0,0,0,0,0,0,0,0,0,0,0,0,0,0,0,0,0,0,0,0,0,0,0,0,0,0,0,0,0,0,0,0,0,0],"id":5,"left_children":[1,3,5,7,9,11,13,15,17,19,21,23,25,27,29,-1,-1,31,33,35,37,39,41,43,45,47,49,51,53,55,57,-1,-1,-1,-1,-1,-1,-1,-1,-1,-1,-1,-1,-1,-1,-1,59,-1,61,-1,-1,-1,-1,-1,-1,-1,-1,-1,-1,-1,-1,-1,-1],"loss_changes":[1.2373159E6,2.083979E5,2.18445E5,2.6561875E4,2.8885465E4,3.862878E4,3.626925E4,2.9462812E3,4.139203E3,3.8498906E3,3.5100972E3,4.664492E3,4.8233906E3,6.494875E3,5.9370312E3,0E0,0E0,3.7046875E2,4.613125E2,4.5666016E2,4.6520215E2,4.5619055E2,3.879878E2,3.0427734E2,8.021875E2,5.653203E2,3.1570312E2,5.601875E2,5.9659375E2,1.0545312E3,3.6614844E2,0E0,0E0,0E0,0E0,0E0,0E0,0E0,0E0,0E0,0E0,0E0,0E0,0E0,0E0,0E0,1.8369531E2,0E0,6.6671875E1,0E0,0E0,0E0,0E0,0E0,0E0,0E0,0E0,0E0,0E0,0E0,0E0,0E0,0E0],"parents":[2147483647,0,0,1,1,2,2,3,3,4,4,5,5,6,6,7,7,8,8,9,9,10,10,11,11,12,12,13,13,14,14,17,17,18,18,19,19,20,20,21,21,22,22,23,23,24,24,25,25,26,26,27,27,28,28,29,29,30,30,46,46,48,48],"right_children":[2,4,6,8,10,12,14,16,18,20,22,24,26,28,30,-1,-1,32,34,36,38,40,42,44,46,48,50,52,54,56,58,-1,-1,-1,-1,-1,-1,-1,-1,-1,-1,-1,-1,-1,-1,-1,60,-1,62,-1,-1,-1,-1,-1,-1,-1,-1,-1,-1,-1,-1,-1,-1],"split_conditions":[1.5E1,7E0,2.6E1,3E0,1.1E1,2E1,3.5E1,2E0,5E0,9E0,1.3E1,1.7E1,2.3E1,3E1,4.4E1,-6.911959E-1,-5.763597E-1,4E0,6E0,8E0,1E1,1.2E1,1.4E1,1.6E1,1.8E1,2.1E1,2.4E1,2.8E1,3.2E1,3.9E1,5.3E1,-5.178243E-1,-4.5882758E-1,-3.997702E-1,-3.4077838E-1,-2.8167135E-1,-2.2268355E-1,-1.6360204E-1,-1.0457535E-1,-4.5519315E-2,1.30720725E-2,7.2087385E-2,1.3112634E-1,1.901329E-1,2.4913807E-1,3.081573E-1,1.9E1,4.85135E-1,2.2E1,6.591413E-1,7.4645466E-1,8.684414E-1,9.8519135E-1,1.099382E0,1.2453617E0,1.4489805E0,1.70679E0,2.0620122E0,2.7940755E0,3.6716017E-1,4.2612502E-1,5.440938E-1,6.030695E-1],"split_indices":[21,21,21,21,21,21,21,21,21,21,21,21,21,21,21,0,0,21,21,21,21,21,21,21,21,21,21,21,21,21,21,0,0,0,0,0,0,0,0,0,0,0,0,0,0,0,21,0,21,0,0,0,0,0,0,0,0,0,0,0,0,0,0],"split_type":[0,0,0,0,0,0,0,0,0,0,0,0,0,0,0,0,0,0,0,0,0,0,0,0,0,0,0,0,0,0,0,0,0,0,0,0,0,0,0,0,0,0,0,0,0,0,0,0,0,0,0,0,0,0,0,0,0,0,0,0,0,0,0],"sum_hessian":[6.4934E4,4.3506E4,2.1428E4,2.1899E4,2.1607E4,1.5897E4,5.531E3,9.856E3,1.2043E4,1.1633E4,9.974E3,9.131E3,6.766E3,4.308E3,1.223E3,5.925E3,3.931E3,5.677E3,6.366E3,5.963E3,5.67E3,5.278E3,4.696E3,4.059E3,5.072E3,3.9E3,2.866E3,2.492E3,1.816E3,1.037E3,1.86E2,2.625E3,3.052E3,2.859E3,3.507E3,2.655E3,3.308E3,2.754E3,2.916E3,2.708E3,2.57E3,2.343E3,2.353E3,2.122E3,1.937E3,1.857E3,3.215E3,1.437E3,2.463E3,1.06E3,1.806E3,1.446E3,1.046E3,9.19E2,8.97E2,6.58E2,3.79E2,1.59E2,2.7E1,1.721E3,1.494E3,1.278E3,1.185E3],"tree_param":{"num_deleted":"0","num_feature":"77","num_nodes":"63","size_leaf_vector":"1"}},{"base_weights":[1.6346092E-3,-2.7559686E0,5.6008244E0,-4.712696E0,-7.722082E-1,3.7267554E0,1.0018198E1,-5.8102593E0,-3.8132117E0,-1.7360764E0,3.5104123E-1,2.6934564E0,5.318908E0,8.5532255E0,1.3851031E1,-6.2649363E-1,-5.236819E-1,-4.377675E0,-3.3076615E0,-2.242675E0,-1.201234E0,-1.5104474E-1,9.173944E-1,1.9676785E0,3.2718055E0,4.621763E0,5.905273E0,7.7542577E0,9.84429E0,1.2535631E1,1.7236216E1,-4.6606156E-1,-4.129598E-1,-3.598072E-1,-3.0671024E-1,-2.535148E-1,-2.0042191E-1,-1.4724778E-1,-9.412142E-2,-4.0969107E-2,1.17653785E-2,6.4881735E-2,1.18019275E-1,1.7112856E-1,2.2423713E-1,2.7735817E-1,3.5555205E0,4.3665525E-1,4.8972693E-1,5.428133E-1,6.1778116E-1,7.288902E-1,8.339612E-1,9.430439E-1,1.0365868E0,1.1754295E0,1.3564086E0,1.6095638E0,2.1508965E0,3.304655E-1,3.8354108E-1],"categories":[],"categories_nodes":[],"categories_segments":[],"categories_sizes":[],"default_left":[0,0,0,0,0,0,0,0,0,0,0,0,0,0,0,0,0,0,0,0,0,0,0,0,0,0,0,0,0,0,0,0,0,0,0,0,0,0,0,0,0,0,0,0,0,0,0,0,0,0,0,0,0,0,0,0,0,0,0,0,0],"id":6,"left_children":[1,3,5,7,9,11,13,15,17,19,21,23,25,27,29,-1,-1,31,33,35,37,39,41,43,45,47,49,51,53,55,57,-1,-1,-1,-1,-1,-1,-1,-1,-1,-1,-1,-1,-1,-1,-1,59,-1,-1,-1,-1,-1,-1,-1,-1,-1,-1,-1,-1,-1,-1],"loss_changes":[1.00266256E6,1.6882169E5,1.7722438E5,2.1502188E4,2.3408672E4,2.4663703E4,3.548675E4,2.4221875E3,3.3455938E3,3.1151016E3,2.844273E3,3.7743594E3,2.2866094E3,4.514375E3,7.3277188E3,0E0,0E0,2.9139062E2,3.67125E2,3.654668E2,3.744458E2,3.698479E2,3.1246558E2,2.4257031E2,6.439297E2,7.694922E1,2.6692188E2,5.630625E2,8.3765625E1,6.11125E2,1.6559688E3,0E0,0E0,0E0,0E0,0E0,0E0,0E0,0E0,0E0,0E0,0E0,0E0,0E0,0E0,0E0,1.4173828E2,0E0,0E0,0E0,0E0,0E0,0E0,0E0,0E0,0E0,0E0,0E0,0E0,0E0,0E0],"parents":[2147483647,0,0,1,1,2,2,3,3,4,4,5,5,6,6,7,7,8,8,9,9,10,10,11,11,12,12,13,13,14,14,17,17,18,18,19,19,20,20,21,21,22,22,23,23,24,24,25,25,26,26,27,27,28,28,29,29,30,30,46,46],"right_children":[2,4,6,8,10,12,14,16,18,20,22,24,26,28,30,-1,-1,32,34,36,38,40,42,44,46,48,50,52,54,56,58,-1,-1,-1,-1,-1,-1,-1,-1,-1,-1,-1,-1,-1,-1,-1,60,-1,-1,-1,-1,-1,-1,-1,-1,-1,-1,-1,-1,-1,-1],"split_conditions":[1.5E1,7E0,2.5E1,3E0,1.1E1,2E1,3.3E1,1E0,5E0,9E0,1.3E1,1.7E1,2.2E1,2.9E1,4E1,-6.2649363E-1,-5.236819E-1,4E0,6E0,8E0,1E1,1.2E1,1.4E1,1.6E1,1.8E1,2.1E1,2.3E1,2.7E1,3.1E1,3.6E1,4.7E1,-4.6606156E-1,-4.129598E-1,-3.598072E-1,-3.0671024E-1,-2.535148E-1,-2.0042191E-1,-1.4724778E-1,-9.412142E-2,-4.0969107E-2,1.17653785E-2,6.4881735E-2,1.18019275E-1,1.7112856E-1,2.2423713E-1,2.7735817E-1,1.9E1,4.3665525E-1,4.8972693E-1,5.428133E-1,6.1778116E-1,7.288902E-1,8.339612E-1,9.430439E-1,1.0365868E0,1.1754295E0,1.3564086E0,1.6095638E0,2.1508965E0,3.304655E-1,3.8354108E-1],"split_indices":[21,21,21,21,21,21,21,21,21,21,21,21,21,21,21,0,0,21,21,21,21,21,21,21,21,21,21,21,21,21,21,0,0,0,0,0,0,0,0,0,0,0,0,0,0,0,21,0,0,0,0,0,0,0,0,0,0,0,0,0,0],"split_type":[0,0,0,0,0,0,0,0,0,0,0,0,0,0,0,0,0,0,0,0,0,0,0,0,0,0,0,0,0,0,0,0,0,0,0,0,0,0,0,0,0,0,0,0,0,0,0,0,0,0,0,0,0,0,0,0,0,0,0,0,0],"sum_hessian":[6.4934E4,4.3506E4,2.1428E4,2.1899E4,2.1607E4,1.5048E4,6.38E3,9.856E3,1.2043E4,1.1633E4,9.974E3,9.131E3,5.917E3,4.62E3,1.76E3,5.482E3,4.374E3,5.677E3,6.366E3,5.963E3,5.67E3,5.278E3,4.696E3,4.059E3,5.072E3,2.715E3,3.202E3,2.863E3,1.757E3,1.273E3,4.87E2,2.625E3,3.052E3,2.859E3,3.507E3,2.655E3,3.308E3,2.754E3,2.916E3,2.708E3,2.57E3,2.343E3,2.353E3,2.122E3,1.937E3,1.857E3,3.215E3,1.437E3,1.278E3,1.185E3,2.017E3,1.612E3,1.251E3,1.001E3,7.56E2,7.36E2,5.37E2,3.9E2,9.7E1,1.721E3,1.494E3],"tree_param":{"num_deleted":"0","num_feature":"77","num_nodes":"61","size_leaf_vector":"1"}},{"base_weights":[1.7494315E-3,-2.480607E0,5.0421095E0,-4.241778E0,-6.950587E-1,3.512801E0,9.434356E0,-5.2294517E0,-3.432268E0,-1.5627863E0,3.160528E-1,2.4247007E0,4.9791846E0,8.179275E0,1.2935408E1,-5.6385565E-1,-4.7132564E-1,-3.9402385E0,-2.977157E0,-2.0186508E0,-1.08133E0,-1.3575654E-1,8.2590705E-1,1.7712543E0,2.9452147E0,4.3844895E0,5.783135E0,7.4427686E0,9.326234E0,1.2077315E1,1.7212484E1,-4.1947317E-1,-3.7167734E-1,-3.2383907E-1,-2.7604797E-1,-2.2817282E-1,-1.8038572E-1,-1.325284E-1,-8.471255E-2,-3.6873728E-2,1.0589289E-2,5.839637E-2,1.0622237E-1,1.540238E-1,2.0182495E-1,2.4963729E-1,3.2005017E0,3.9302E-1,4.6437774E0,5.315694E-1,6.0488635E-1,7.0385927E-1,7.984697E-1,8.9133495E-1,9.867565E-1,1.1022921E0,1.3083656E0,1.6356506E0,2.3782437E0,2.9743814E-1,3.452126E-1,4.4079253E-1,4.8857766E-1],"categories":[],"categories_nodes":[],"categories_segments":[],"categories_sizes":[],"default_left":[0,0,0,0,0,0,0,0,0,0,0,0,0,0,0,0,0,0,0,0,0,0,0,0,0,0,0,0,0,0,0,0,0,0,0,0,0,0,0,0,0,0,0,0,0,0,0,0,0,0,0,0,0,0,0,0,0,0,0,0,0,0,0],"id":7,"left_children":[1,3,5,7,9,11,13,15,17,19,21,23,25,27,29,-1,-1,31,33,35,37,39,41,43,45,47,49,51,53,55,57,-1,-1,-1,-1,-1,-1,-1,-1,-1,-1,-1,-1,-1,-1,-1,59,-1,61,-1,-1,-1,-1,-1,-1,-1,-1,-1,-1,-1,-1,-1,-1],"loss_changes":[8.125029E5,1.3676222E5,1.4377819E5,1.7405188E4,1.8971158E4,2.5280297E4,2.3991219E4,1.9514688E3,2.7034531E3,2.5202344E3,2.3048237E3,3.053668E3,3.1082969E3,3.2069062E3,4.8429375E3,0E0,0E0,2.2820312E2,2.9146875E2,2.920371E2,3.011665E2,2.9987344E2,2.5147021E2,1.929707E2,5.163203E2,3.555078E2,2.1032031E2,3.3964062E2,7.85E1,9.071094E2,5.536797E2,0E0,0E0,0E0,0E0,0E0,0E0,0E0,0E0,0E0,0E0,0E0,0E0,0E0,0E0,0E0,1.08453125E2,0E0,2.6160156E1,0E0,0E0,0E0,0E0,0E0,0E0,0E0,0E0,0E0,0E0,0E0,0E0,0E0,0E0],"parents":[2147483647,0,0,1,1,2,2,3,3,4,4,5,5,6,6,7,7,8,8,9,9,10,10,11,11,12,12,13,13,14,14,17,17,18,18,19,19,20,20,21,21,22,22,23,23,24,24,25,25,26,26,27,27,28,28,29,29,30,30,46,46,48,48],"right_children":[2,4,6,8,10,12,14,16,18,20,22,24,26,28,30,-1,-1,32,34,36,38,40,42,44,46,48,50,52,54,56,58,-1,-1,-1,-1,-1,-1,-1,-1,-1,-1,-1,-1,-1,-1,-1,60,-1,62,-1,-1,-1,-1,-1,-1,-1,-1,-1,-1,-1,-1,-1,-1],"split_conditions":[1.5E1,7E0,2.6E1,3E0,1.1E1,2E1,3.4E1,1E0,5E0,9E0,1.3E1,1.7E1,2.3E1,3E1,4.3E1,-5.6385565E-1,-4.7132564E-1,4E0,6E0,8E0,1E1,1.2E1,1.4E1,1.6E1,1.8E1,2.1E1,2.4E1,2.8E1,3.2E1,3.7E1,5.4E1,-4.1947317E-1,-3.7167734E-1,-3.2383907E-1,-2.7604797E-1,-2.2817282E-1,-1.8038572E-1,-1.325284E-1,-8.471255E-2,-3.6873728E-2,1.0589289E-2,5.839637E-2,1.0622237E-1,1.540238E-1,2.0182495E-1,2.4963729E-1,1.9E1,3.9302E-1,2.2E1,5.315694E-1,6.0488635E-1,7.0385927E-1,7.984697E-1,8.9133495E-1,9.867565E-1,1.1022921E0,1.3083656E0,1.6356506E0,2.3782437E0,2.9743814E-1,3.452126E-1,4.4079253E-1,4.8857766E-1],"split_indices":[21,21,21,21,21,21,21,21,21,21,21,21,21,21,21,0,0,21,21,21,21,21,21,21,21,21,21,21,21,21,21,0,0,0,0,0,0,0,0,0,0,0,0,0,0,0,21,0,21,0,0,0,0,0,0,0,0,0,0,0,0,0,0],"split_type":[0,0,0,0,0,0,0,0,0,0,0,0,0,0,0,0,0,0,0,0,0,0,0,0,0,0,0,0,0,0,0,0,0,0,0,0,0,0,0,0,0,0,0,0,0,0,0,0,0,0,0,0,0,0,0,0,0,0,0,0,0,0,0],"sum_hessian":[6.4934E4,4.3506E4,2.1428E4,2.1899E4,2.1607E4,1.5897E4,5.531E3,9.856E3,1.2043E4,1.1633E4,9.974E3,9.131E3,6.766E3,4.076E3,1.455E3,5.482E3,4.374E3,5.677E3,6.366E3,5.963E3,5.67E3,5.278E3,4.696E3,4.059E3,5.072E3,3.9E3,2.866E3,2.492E3,1.584E3,1.217E3,2.38E2,2.625E3,3.052E3,2.859E3,3.507E3,2.655E3,3.308E3,2.754E3,2.916E3,2.708E3,2.57E3,2.343E3,2.353E3,2.122E3,1.937E3,1.857E3,3.215E3,1.437E3,2.463E3,1.06E3,1.806E3,1.446E3,1.046E3,9.19E2,6.65E2,6.05E2,6.12E2,2.15E2,2.3E1,1.721E3,1.494E3,1.278E3,1.185E3],"tree_param":{"num_deleted":"0","num_feature":"77","num_nodes":"63","size_leaf_vector":"1"}},{"base_weights":[1.8763314E-3,-2.232774E0,4.5393224E0,-3.8179393E0,-6.256216E-1,3.018714E0,8.123259E0,-4.7067127E0,-3.0894055E0,-1.4068192E0,2.8456163E-1,2.182805E0,4.3063955E0,6.933057E0,1.123615E1,-5.045334E-1,-4.192629E-1,-3.54653E0,-2.6796927E0,-1.8170218E0,-9.7341144E-1,-1.2199654E-1,7.435644E-1,1.5944626E0,2.6512632E0,3.7449412E0,4.778017E0,6.103224E0,7.744907E0,1.0278441E1,1.4423334E1,-3.775418E-1,-3.3452177E-1,-2.9146647E-1,-2.4845107E-1,-2.053641E-1,-1.623526E-1,-1.19280376E-1,-7.624415E-2,-3.318771E-2,9.530741E-3,5.2559227E-2,9.560467E-2,1.3862863E-1,1.8165286E-1,2.2468698E-1,2.8809624E0,3.5374525E-1,3.967478E-1,4.3976116E-1,4.994262E-1,5.689339E-1,6.33522E-1,7.186991E-1,8.187402E-1,9.527475E-1,1.1132902E0,1.3326807E0,1.7586775E0,2.6771164E-1,3.1071442E-1],"categories":[],"categories_nodes":[],"categories_segments":[],"categories_sizes":[],"default_left":[0,0,0,0,0,0,0,0,0,0,0,0,0,0,0,0,0,0,0,0,0,0,0,0,0,0,0,0,0,0,0,0,0,0,0,0,0,0,0,0,0,0,0,0,0,0,0,0,0,0,0,0,0,0,0,0,0,0,0,0,0],"id":8,"left_children":[1,3,5,7,9,11,13,15,17,19,21,23,25,27,29,-1,-1,31,33,35,37,39,41,43,45,47,49,51,53,55,57,-1,-1,-1,-1,-1,-1,-1,-1,-1,-1,-1,-1,-1,-1,-1,59,-1,-1,-1,-1,-1,-1,-1,-1,-1,-1,-1,-1,-1,-1],"loss_changes":[6.584485E5,1.107917E5,1.1664703E5,1.4087781E4,1.5375624E4,1.6124234E4,2.3381812E4,1.6024062E3,2.1839453E3,2.0386758E3,1.8677544E3,2.4702188E3,1.4639219E3,2.9274219E3,4.98E3,0E0,0E0,1.7779688E2,2.3077344E2,2.3295508E2,2.42021E2,2.4316125E2,2.0222363E2,1.5314355E2,4.1347266E2,3.632422E1,1.4760156E2,6.4171875E1,3.6164062E2,5.6E2,8.509453E2,0E0,0E0,0E0,0E0,0E0,0E0,0E0,0E0,0E0,0E0,0E0,0E0,0E0,0E0,0E0,8.211719E1,0E0,0E0,0E0,0E0,0E0,0E0,0E0,0E0,0E0,0E0,0E0,0E0,0E0,0E0],"parents":[2147483647,0,0,1,1,2,2,3,3,4,4,5,5,6,6,7,7,8,8,9,9,10,10,11,11,12,12,13,13,14,14,17,17,18,18,19,19,20,20,21,21,22,22,23,23,24,24,25,25,26,26,27,27,28,28,29,29,30,30,46,46],"right_children":[2,4,6,8,10,12,14,16,18,20,22,24,26,28,30,-1,-1,32,34,36,38,40,42,44,46,48,50,52,54,56,58,-1,-1,-1,-1,-1,-1,-1,-1,-1,-1,-1,-1,-1,-1,-1,60,-1,-1,-1,-1,-1,-1,-1,-1,-1,-1,-1,-1,-1,-1],"split_conditions":[1.5E1,7E0,2.5E1,3E0,1.1E1,2E1,3.3E1,2E0,5E0,9E0,1.3E1,1.7E1,2.2E1,2.8E1,4.1E1,-5.045334E-1,-4.192629E-1,4E0,6E0,8E0,1E1,1.2E1,1.4E1,1.6E1,1.8E1,2.1E1,2.3E1,2.6E1,3E1,3.6E1,4.7E1,-3.775418E-1,-3.3452177E-1,-2.9146647E-1,-2.4845107E-1,-2.053641E-1,-1.623526E-1,-1.19280376E-1,-7.624415E-2,-3.318771E-2,9.530741E-3,5.2559227E-2,9.560467E-2,1.3862863E-1,1.8165286E-1,2.2468698E-1,1.9E1,3.5374525E-1,3.967478E-1,4.3976116E-1,4.994262E-1,5.689339E-1,6.33522E-1,7.186991E-1,8.187402E-1,9.527475E-1,1.1132902E0,1.3326807E0,1.7586775E0,2.6771164E-1,3.1071442E-1],"split_indices":[21,21,21,21,21,21,21,21,21,21,21,21,21,21,21,0,0,21,21,21,21,21,21,21,21,21,21,21,21,21,21,0,0,0,0,0,0,0,0,0,0,0,0,0,0,0,21,0,0,0,0,0,0,0,0,0,0,0,0,0,0],"split_type":[0,0,0,0,0,0,0,0,0,0,0,0,0,0,0,0,0,0,0,0,0,0,0,0,0,0,0,0,0,0,0,0,0,0,0,0,0,0,0,0,0,0,0,0,0,0,0,0,0,0,0,0,0,0,0,0,0,0,0,0,0],"sum_hessian":[6.4934E4,4.3506E4,2.1428E4,2.1899E4,2.1607E4,1.5048E4,6.38E3,9.856E3,1.2043E4,1.1633E4,9.974E3,9.131E3,5.917E3,4.62E3,1.76E3,5.925E3,3.931E3,5.677E3,6.366E3,5.963E3,5.67E3,5.278E3,4.696E3,4.059E3,5.072E3,2.715E3,3.202E3,2.295E3,2.325E3,1.359E3,4.01E2,2.625E3,3.052E3,2.859E3,3.507E3,2.655E3,3.308E3,2.754E3,2.916E3,2.708E3,2.57E3,2.343E3,2.353E3,2.122E3,1.937E3,1.857E3,3.215E3,1.437E3,1.278E3,1.185E3,2.017E3,8.49E2,1.446E3,1.046E3,1.279E3,7.36E2,6.23E2,3.04E2,9.7E1,1.721E3,1.494E3],"tree_param":{"num_deleted":"0","num_feature":"77","num_nodes":"61","size_leaf_vector":"1"}},{"base_weights":[1.9366464E-3,-2.0097175E0,4.0866365E0,-3.436473E0,-5.6312597E-1,2.7175612E0,7.3132677E0,-4.2362366E0,-2.780818E0,-1.2664434E0,2.562182E-1,1.9650856E0,3.876549E0,6.240993E0,1.01171665E1,-4.540886E-1,-3.773473E-1,-3.1921785E0,-2.4119651E0,-1.635549E0,-8.762808E-1,-1.0961199E-1,6.694525E-1,1.4353412E0,2.3866897E0,3.371092E0,4.3008213E0,5.6556425E0,7.185364E0,9.132686E0,1.2646083E1,-3.39802E-1,-3.0108055E-1,-2.6233E-1,-2.2361302E-1,-1.848354E-1,-1.4612226E-1,-1.0735662E-1,-6.8622336E-2,-2.9870147E-2,8.578009E-3,4.730558E-2,8.604824E-2,1.24772266E-1,1.6349693E-1,2.0223041E-1,2.5933568E0,3.183954E-1,3.5710403E-1,4.1191226E-1,4.7118804E-1,5.3100026E-1,6.08844E-1,6.871993E-1,7.5774544E-1,8.576021E-1,9.8596925E-1,1.1540959E0,1.5213015E1,2.4095602E-1,2.796637E-1,1.4208257E0,2.1117823E0],"categories":[],"categories_nodes":[],"categories_segments":[],"categories_sizes":[],"default_left":[0,0,0,0,0,0,0,0,0,0,0,0,0,0,0,0,0,0,0,0,0,0,0,0,0,0,0,0,0,0,0,0,0,0,0,0,0,0,0,0,0,0,0,0,0,0,0,0,0,0,0,0,0,0,0,0,0,0,0,0,0,0,0],"id":9,"left_children":[1,3,5,7,9,11,13,15,17,19,21,23,25,27,29,-1,-1,31,33,35,37,39,41,43,45,47,49,51,53,55,57,-1,-1,-1,-1,-1,-1,-1,-1,-1,-1,-1,-1,-1,-1,-1,59,-1,-1,-1,-1,-1,-1,-1,-1,-1,-1,-1,61,-1,-1,-1,-1],"loss_changes":[5.336001E5,8.975358E4,9.454247E4,1.1401734E4,1.246223E4,1.3058344E4,1.8958062E4,1.2893594E3,1.7637109E3,1.648875E3,1.5136284E3,1.997918E3,1.1779062E3,2.385375E3,4.0510312E3,0E0,0E0,1.3766406E2,1.8214062E2,1.854541E2,1.9430273E2,1.9719588E2,1.6247778E2,1.2119629E2,3.306289E2,2.2705078E1,1.3151172E2,2.821172E2,1.94375E1,2.4667188E2,9.412344E2,0E0,0E0,0E0,0E0,0E0,0E0,0E0,0E0,0E0,0E0,0E0,0E0,0E0,0E0,0E0,6.135547E1,0E0,0E0,0E0,0E0,0E0,0E0,0E0,0E0,0E0,0E0,0E0,1.8322852E2,0E0,0E0,0E0,0E0],"parents":[2147483647,0,0,1,1,2,2,3,3,4,4,5,5,6,6,7,7,8,8,9,9,10,10,11,11,12,12,13,13,14,14,17,17,18,18,19,19,20,20,21,21,22,22,23,23,24,24,25,25,26,26,27,27,28,28,29,29,30,30,46,46,58,58],"right_children":[2,4,6,8,10,12,14,16,18,20,22,24,26,28,30,-1,-1,32,34,36,38,40,42,44,46,48,50,52,54,56,58,-1,-1,-1,-1,-1,-1,-1,-1,-1,-1,-1,-1,-1,-1,-1,60,-1,-1,-1,-1,-1,-1,-1,-1,-1,-1,-1,62,-1,-1,-1,-1],"split_conditions":[1.5E1,7E0,2.5E1,3E0,1.1E1,2E1,3.3E1,2E0,5E0,9E0,1.3E1,1.7E1,2.2E1,2.9E1,4E1,-4.540886E-1,-3.773473E-1,4E0,6E0,8E0,1E1,1.2E1,1.4E1,1.6E1,1.8E1,2.1E1,2.4E1,2.7E1,3.1E1,3.6E1,4.5E1,-3.39802E-1,-3.0108055E-1,-2.6233E-1,-2.2361302E-1,-1.848354E-1,-1.4612226E-1,-1.0735662E-1,-6.8622336E-2,-2.9870147E-2,8.578009E-3,4.730558E-2,8.604824E-2,1.24772266E-1,1.6349693E-1,2.0223041E-1,1.9E1,3.183954E-1,3.5710403E-1,4.1191226E-1,4.7118804E-1,5.3100026E-1,6.08844E-1,6.871993E-1,7.5774544E-1,8.576021E-1,9.8596925E-1,1.1540959E0,5.6E1,2.4095602E-1,2.796637E-1,1.4208257E0,2.1117823E0],"split_indices":[21,21,21,21,21,21,21,21,21,21,21,21,21,21,21,0,0,21,21,21,21,21,21,21,21,21,21,21,21,21,21,0,0,0,0,0,0,0,0,0,0,0,0,0,0,0,21,0,0,0,0,0,0,0,0,0,0,0,21,0,0,0,0],"split_type":[0,0,0,0,0,0,0,0,0,0,0,0,0,0,0,0,0,0,0,0,0,0,0,0,0,0,0,0,0,0,0,0,0,0,0,0,0,0,0,0,0,0,0,0,0,0,0,0,0,0,0,0,0,0,0,0,0,0,0,0,0,0,0],"sum_hessian":[6.4934E4,4.3506E4,2.1428E4,2.1899E4,2.1607E4,1.5048E4,6.38E3,9.856E3,1.2043E4,1.1633E4,9.974E3,9.131E3,5.917E3,4.62E3,1.76E3,5.925E3,3.931E3,5.677E3,6.366E3,5.963E3,5.67E3,5.278E3,4.696E3,4.059E3,5.072E3,2.715E3,3.202E3,2.863E3,1.757E3,1.273E3,4.87E2,2.625E3,3.052E3,2.859E3,3.507E3,2.655E3,3.308E3,2.754E3,2.916E3,2.708E3,2.57E3,2.343E3,2.353E3,2.122E3,1.937E3,1.857E3,3.215E3,1.437E3,1.278E3,2.245E3,9.57E2,1.612E3,1.251E3,1.001E3,7.56E2,7.36E2,5.37E2,3.47E2,1.4E2,1.721E3,1.494E3,1.24E2,1.6E1],"tree_param":{"num_deleted":"0","num_feature":"77","num_nodes":"63","size_leaf_vector":"1"}},{"base_weights":[2.0253118E-3,-1.8089608E0,3.6793115E0,-3.0931432E0,-5.0687784E-1,2.5619314E0,6.8879943E0,-3.8127987E0,-2.503079E0,-1.1401004E0,2.307079E-1,1.7691258E0,3.6299582E0,5.9661207E0,9.457767E0,-4.116357E-1,-3.429205E-1,-2.8732495E0,-2.1710021E0,-1.4722173E0,-7.888597E-1,-9.846559E-2,6.027488E-1,1.2921245E0,2.1485574E0,3.1936193E0,4.218911E0,5.430691E0,6.79821E0,8.895832E0,1.3170066E1,-3.0583474E-1,-2.7098235E-1,-2.3610616E-1,-2.0125811E-1,-1.6635881E-1,-1.3151447E-1,-9.6624814E-2,-6.1762422E-2,-2.6884247E-2,7.7205123E-3,4.2577084E-2,7.744709E-2,1.1230093E-1,1.4715567E-1,1.8201825E-1,2.334494E0,2.8657797E-1,3.379593E-1,3.874147E-1,4.413475E-1,5.134759E-1,5.824944E-1,6.4883155E-1,7.20107E-1,8.1856054E-1,9.8950875E-1,1.2400469E0,1.8795958E0,2.1687439E-1,2.517161E-1],"categories":[],"categories_nodes":[],"categories_segments":[],"categories_sizes":[],"default_left":[0,0,0,0,0,0,0,0,0,0,0,0,0,0,0,0,0,0,0,0,0,0,0,0,0,0,0,0,0,0,0,0,0,0,0,0,0,0,0,0,0,0,0,0,0,0,0,0,0,0,0,0,0,0,0,0,0,0,0,0,0],"id":10,"left_children":[1,3,5,7,9,11,13,15,17,19,21,23,25,27,29,-1,-1,31,33,35,37,39,41,43,45,47,49,51,53,55,57,-1,-1,-1,-1,-1,-1,-1,-1,-1,-1,-1,-1,-1,-1,-1,59,-1,-1,-1,-1,-1,-1,-1,-1,-1,-1,-1,-1,-1,-1],"loss_changes":[4.324609E5,7.271103E4,7.671766E4,9.226969E3,1.0101501E4,1.3401031E4,1.2894656E4,1.0582031E3,1.4238359E3,1.3333691E3,1.2267007E3,1.6156113E3,1.6513984E3,1.6572031E3,2.6995E3,0E0,0E0,1.0578516E2,1.432168E2,1.4729688E2,1.5582227E2,1.599388E2,1.3041443E2,9.560156E1,2.639453E2,1.6570312E2,9.233984E1,1.5135156E2,1.4265625E1,6.395156E2,2.6460352E2,0E0,0E0,0E0,0E0,0E0,0E0,0E0,0E0,0E0,0E0,0E0,0E0,0E0,0E0,0E0,4.5052734E1,0E0,0E0,0E0,0E0,0E0,0E0,0E0,0E0,0E0,0E0,0E0,0E0,0E0,0E0],"parents":[2147483647,0,0,1,1,2,2,3,3,4,4,5,5,6,6,7,7,8,8,9,9,10,10,11,11,12,12,13,13,14,14,17,17,18,18,19,19,20,20,21,21,22,22,23,23,24,24,25,25,26,26,27,27,28,28,29,29,30,30,46,46],"right_children":[2,4,6,8,10,12,14,16,18,20,22,24,26,28,30,-1,-1,32,34,36,38,40,42,44,46,48,50,52,54,56,58,-1,-1,-1,-1,-1,-1,-1,-1,-1,-1,-1,-1,-1,-1,-1,60,-1,-1,-1,-1,-1,-1,-1,-1,-1,-1,-1,-1,-1,-1],"split_conditions":[1.5E1,7E0,2.6E1,3E0,1.1E1,2E1,3.4E1,1E0,5E0,9E0,1.3E1,1.7E1,2.3E1,3E1,4.4E1,-4.116357E-1,-3.429205E-1,4E0,6E0,8E0,1E1,1.2E1,1.4E1,1.6E1,1.8E1,2.1E1,2.4E1,2.8E1,3.2E1,3.8E1,5.5E1,-3.0583474E-1,-2.7098235E-1,-2.3610616E-1,-2.0125811E-1,-1.6635881E-1,-1.3151447E-1,-9.6624814E-2,-6.1762422E-2,-2.6884247E-2,7.7205123E-3,4.2577084E-2,7.744709E-2,1.1230093E-1,1.4715567E-1,1.8201825E-1,1.9E1,2.8657797E-1,3.379593E-1,3.874147E-1,4.413475E-1,5.134759E-1,5.824944E-1,6.4883155E-1,7.20107E-1,8.1856054E-1,9.8950875E-1,1.2400469E0,1.8795958E0,2.1687439E-1,2.517161E-1],"split_indices":[21,21,21,21,21,21,21,21,21,21,21,21,21,21,21,0,0,21,21,21,21,21,21,21,21,21,21,21,21,21,21,0,0,0,0,0,0,0,0,0,0,0,0,0,0,0,21,0,0,0,0,0,0,0,0,0,0,0,0,0,0],"split_type":[0,0,0,0,0,0,0,0,0,0,0,0,0,0,0,0,0,0,0,0,0,0,0,0,0,0,0,0,0,0,0,0,0,0,0,0,0,0,0,0,0,0,0,0,0,0,0,0,0,0,0,0,0,0,0,0,0,0,0,0,0],"sum_hessian":[6.4934E4,4.3506E4,2.1428E4,2.1899E4,2.1607E4,1.5897E4,5.531E3,9.856E3,1.2043E4,1.1633E4,9.974E3,9.131E3,6.766E3,4.076E3,1.455E3,5.482E3,4.374E3,5.677E3,6.366E3,5.963E3,5.67E3,5.278E3,4.696E3,4.059E3,5.072E3,3.9E3,2.866E3,2.492E3,1.584E3,1.269E3,1.86E2,2.625E3,3.052E3,2.859E3,3.507E3,2.655E3,3.308E3,2.754E3,2.916E3,2.708E3,2.57E3,2.343E3,2.353E3,2.122E3,1.937E3,1.857E3,3.215E3,1.437E3,2.463E3,1.06E3,1.806E3,1.446E3,1.046E3,9.19E2,6.65E2,7.53E2,5.16E2,1.68E2,1.8E1,1.721E3,1.494E3],"tree_param":{"num_deleted":"0","num_feature":"77","num_nodes":"61","size_leaf_vector":"1"}},{"base_weights":[2.063507E-3,-1.6282744E0,3.3125825E0,-2.7841382E0,-4.5625278E-1,2.2014487E0,5.9310026E0,-3.431697E0,-2.2531042E0,-1.0263873E0,2.0774743E-1,1.5927509E0,3.1386614E0,5.05935E0,8.209241E0,-3.704796E-1,-3.0863634E-1,-2.5862024E0,-1.9541278E0,-1.3252131E0,-7.101781E-1,-8.8433534E-2,5.427126E-1,1.1632223E0,1.9342241E0,2.723951E-1,3.4862156E0,4.5852222E0,5.823197E-1,7.492731E0,1.0587955E1,-2.7526292E-1,-2.4389298E-1,-2.1250382E-1,-1.8113804E-1,-1.4972918E-1,-1.1836701E-1,-8.696589E-2,-5.5588264E-2,-2.4196832E-2,6.948718E-3,3.8321223E-2,6.970569E-2,1.0107614E-1,1.3244769E-1,1.6382621E-1,2.1015012E0,3.2089823E-1,3.6424655E-1,4.3041387E-1,4.9357033E-1,7.055247E-1,8.339521E-1,1.0110488E0,1.5653437E0,1.9519958E-1,2.265613E-1],"categories":[],"categories_nodes":[],"categories_segments":[],"categories_sizes":[],"default_left":[0,0,0,0,0,0,0,0,0,0,0,0,0,0,0,0,0,0,0,0,0,0,0,0,0,0,0,0,0,0,0,0,0,0,0,0,0,0,0,0,0,0,0,0,0,0,0,0,0,0,0,0,0,0,0,0,0],"id":11,"left_children":[1,3,5,7,9,11,13,15,17,19,21,23,25,27,29,-1,-1,31,33,35,37,39,41,43,45,-1,47,49,-1,51,53,-1,-1,-1,-1,-1,-1,-1,-1,-1,-1,-1,-1,-1,-1,-1,55,-1,-1,-1,-1,-1,-1,-1,-1,-1,-1],"loss_changes":[3.5049362E5,5.8905125E4,6.2251484E4,7.466297E3,8.188529E3,8.53282E3,1.2497359E4,8.5027344E2,1.1489844E3,1.0780195E3,9.942137E2,1.3061895E3,7.813906E2,1.5427656E3,2.7412578E3,0E0,0E0,8.053906E1,1.12125E2,1.1667969E2,1.2480835E2,1.2973796E2,1.0456079E2,7.5123535E1,2.103125E2,0E0,5.854297E1,1.6850781E2,0E0,2.9103906E2,5.56375E2,0E0,0E0,0E0,0E0,0E0,0E0,0E0,0E0,0E0,0E0,0E0,0E0,0E0,0E0,0E0,3.2307617E1,0E0,0E0,0E0,0E0,0E0,0E0,0E0,0E0,0E0,0E0],"parents":[2147483647,0,0,1,1,2,2,3,3,4,4,5,5,6,6,7,7,8,8,9,9,10,10,11,11,12,12,13,13,14,14,17,17,18,18,19,19,20,20,21,21,22,22,23,23,24,24,26,26,27,27,29,29,30,30,46,46],"right_children":[2,4,6,8,10,12,14,16,18,20,22,24,26,28,30,-1,-1,32,34,36,38,40,42,44,46,-1,48,50,-1,52,54,-1,-1,-1,-1,-1,-1,-1,-1,-1,-1,-1,-1,-1,-1,-1,56,-1,-1,-1,-1,-1,-1,-1,-1,-1,-1],"split_conditions":[1.5E1,7E0,2.5E1,3E0,1.1E1,2E1,3.3E1,1E0,5E0,9E0,1.3E1,1.7E1,2.2E1,2.9E1,4.1E1,-3.704796E-1,-3.0863634E-1,4E0,6E0,8E0,1E1,1.2E1,1.4E1,1.6E1,1.8E1,2.723951E-1,2.3E1,2.7E1,5.823197E-1,3.7E1,5.2E1,-2.7526292E-1,-2.4389298E-1,-2.1250382E-1,-1.8113804E-1,-1.4972918E-1,-1.1836701E-1,-8.696589E-2,-5.5588264E-2,-2.4196832E-2,6.948718E-3,3.8321223E-2,6.970569E-2,1.0107614E-1,1.3244769E-1,1.6382621E-1,1.9E1,3.2089823E-1,3.6424655E-1,4.3041387E-1,4.9357033E-1,7.055247E-1,8.339521E-1,1.0110488E0,1.5653437E0,1.9519958E-1,2.265613E-1],"split_indices":[21,21,21,21,21,21,21,21,21,21,21,21,21,21,21,0,0,21,21,21,21,21,21,21,21,0,21,21,0,21,21,0,0,0,0,0,0,0,0,0,0,0,0,0,0,0,21,0,0,0,0,0,0,0,0,0,0],"split_type":[0,0,0,0,0,0,0,0,0,0,0,0,0,0,0,0,0,0,0,0,0,0,0,0,0,0,0,0,0,0,0,0,0,0,0,0,0,0,0,0,0,0,0,0,0,0,0,0,0,0,0,0,0,0,0,0,0],"sum_hessian":[6.4934E4,4.3506E4,2.1428E4,2.1899E4,2.1607E4,1.5048E4,6.38E3,9.856E3,1.2043E4,1.1633E4,9.974E3,9.131E3,5.917E3,4.62E3,1.76E3,5.482E3,4.374E3,5.677E3,6.366E3,5.963E3,5.67E3,5.278E3,4.696E3,4.059E3,5.072E3,2.715E3,3.202E3,2.863E3,1.757E3,1.359E3,4.01E2,2.625E3,3.052E3,2.859E3,3.507E3,2.655E3,3.308E3,2.754E3,2.916E3,2.708E3,2.57E3,2.343E3,2.353E3,2.122E3,1.937E3,1.857E3,3.215E3,1.185E3,2.017E3,1.612E3,1.251E3,9.1E2,4.49E2,3.71E2,3E1,1.721E3,1.494E3],"tree_param":{"num_deleted":"0","num_feature":"77","num_nodes":"57","size_leaf_vector":"1"}},{"base_weights":[2.0341212E-3,-1.4656519E0,2.982323E0,-2.5060253E0,-4.1068864E-1,2.0755687E0,5.5858297E0,-3.0886977E0,-2.0281186E0,-9.240418E-1,1.870819E-1,1.4340037E0,2.9395697E0,4.9137926E0,7.9389524E0,-3.3146507E-1,-2.7448305E-1,-2.3278496E0,-1.7589338E0,-1.1929045E0,-6.393616E-1,-7.9404004E-2,4.8867697E-1,1.0472041E0,1.7413116E0,2.5876157E0,3.4139447E0,4.3974032E0,5.614093E0,7.486631E0,1.1289149E1,-2.4774711E-1,-2.1951166E-1,-1.9126086E-1,-1.630294E-1,-1.3476194E-1,-1.0653386E-1,-7.8272484E-2,-5.0031293E-2,-2.1778062E-2,6.254141E-3,3.449071E-2,6.2738046E-2,9.097328E-2,1.1920979E-1,1.4745243E-1,1.8917933E0,2.3071972E-1,2.7461606E-1,3.123194E-1,3.5772392E-1,4.1617113E-1,4.7093883E-1,5.2585024E-1,5.9610075E-1,6.9318986E-1,8.3037245E-1,1.0530013E0,1.6297235E0,1.7569092E-1,2.039204E-1],"categories":[],"categories_nodes":[],"categories_segments":[],"categories_sizes":[],"default_left":[0,0,0,0,0,0,0,0,0,0,0,0,0,0,0,0,0,0,0,0,0,0,0,0,0,0,0,0,0,0,0,0,0,0,0,0,0,0,0,0,0,0,0,0,0,0,0,0,0,0,0,0,0,0,0,0,0,0,0,0,0],"id":12,"left_children":[1,3,5,7,9,11,13,15,17,19,21,23,25,27,29,-1,-1,31,33,35,37,39,41,43,45,47,49,51,53,55,57,-1,-1,-1,-1,-1,-1,-1,-1,-1,-1,-1,-1,-1,-1,-1,59,-1,-1,-1,-1,-1,-1,-1,-1,-1,-1,-1,-1,-1,-1],"loss_changes":[2.8405353E5,4.7721156E4,5.050014E4,6.0409062E3,6.638333E3,8.764516E3,8.580672E3,6.961719E2,9.2678125E2,8.713799E2,8.058306E2,1.0557793E3,1.0609531E3,1.4334531E3,1.5825312E3,0E0,0E0,6.0601562E1,8.732031E1,9.21416E1,9.9826416E1,1.0525572E2,8.3725464E1,5.876758E1,1.6721094E2,1.1656641E2,5.7941406E1,7.500781E1,8.060547E1,2.8142578E2,9.617578E1,0E0,0E0,0E0,0E0,0E0,0E0,0E0,0E0,0E0,0E0,0E0,0E0,0E0,0E0,0E0,2.2401367E1,0E0,0E0,0E0,0E0,0E0,0E0,0E0,0E0,0E0,0E0,0E0,0E0,0E0,0E0],"parents":[2147483647,0,0,1,1,2,2,3,3,4,4,5,5,6,6,7,7,8,8,9,9,10,10,11,11,12,12,13,13,14,14,17,17,18,18,19,19,20,20,21,21,22,22,23,23,24,24,25,25,26,26,27,27,28,28,29,29,30,30,46,46],"right_children":[2,4,6,8,10,12,14,16,18,20,22,24,26,28,30,-1,-1,32,34,36,38,40,42,44,46,48,50,52,54,56,58,-1,-1,-1,-1,-1,-1,-1,-1,-1,-1,-1,-1,-1,-1,-1,60,-1,-1,-1,-1,-1,-1,-1,-1,-1,-1,-1,-1,-1,-1],"split_conditions":[1.5E1,7E0,2.6E1,3E0,1.1E1,2E1,3.5E1,2E0,5E0,9E0,1.3E1,1.7E1,2.3E1,3E1,4.5E1,-3.3146507E-1,-2.7448305E-1,4E0,6E0,8E0,1E1,1.2E1,1.4E1,1.6E1,1.8E1,2.1E1,2.4E1,2.8E1,3.2E1,3.9E1,5.7E1,-2.4774711E-1,-2.1951166E-1,-1.9126086E-1,-1.630294E-1,-1.3476194E-1,-1.0653386E-1,-7.8272484E-2,-5.0031293E-2,-2.1778062E-2,6.254141E-3,3.449071E-2,6.2738046E-2,9.097328E-2,1.1920979E-1,1.4745243E-1,1.9E1,2.3071972E-1,2.7461606E-1,3.123194E-1,3.5772392E-1,4.1617113E-1,4.7093883E-1,5.2585024E-1,5.9610075E-1,6.9318986E-1,8.3037245E-1,1.0530013E0,1.6297235E0,1.7569092E-1,2.039204E-1],"split_indices":[21,21,21,21,21,21,21,21,21,21,21,21,21,21,21,0,0,21,21,21,21,21,21,21,21,21,21,21,21,21,21,0,0,0,0,0,0,0,0,0,0,0,0,0,0,0,21,0,0,0,0,0,0,0,0,0,0,0,0,0,0],"split_type":[0,0,0,0,0,0,0,0,0,0,0,0,0,0,0,0,0,0,0,0,0,0,0,0,0,0,0,0,0,0,0,0,0,0,0,0,0,0,0,0,0,0,0,0,0,0,0,0,0,0,0,0,0,0,0,0,0,0,0,0,0],"sum_hessian":[6.4934E4,4.3506E4,2.1428E4,2.1899E4,2.1607E4,1.5897E4,5.531E3,9.856E3,1.2043E4,1.1633E4,9.974E3,9.131E3,6.766E3,4.308E3,1.223E3,5.925E3,3.931E3,5.677E3,6.366E3,5.963E3,5.67E3,5.278E3,4.696E3,4.059E3,5.072E3,3.9E3,2.866E3,2.492E3,1.816E3,1.083E3,1.4E2,2.625E3,3.052E3,2.859E3,3.507E3,2.655E3,3.308E3,2.754E3,2.916E3,2.708E3,2.57E3,2.343E3,2.353E3,2.122E3,1.937E3,1.857E3,3.215E3,1.437E3,2.463E3,1.06E3,1.806E3,1.446E3,1.046E3,9.19E2,8.97E2,6.58E2,4.25E2,1.26E2,1.4E1,1.721E3,1.494E3],"tree_param":{"num_deleted":"0","num_feature":"77","num_nodes":"61","size_leaf_vector":"1"}},{"base_weights":[2.0526345E-3,-1.319287E0,2.6852167E0,-2.2557163E0,-3.696793E-1,1.7834607E0,4.8099365E0,-2.7799907E0,-1.8256243E0,-8.3192706E-1,1.684821E-1,1.291122E0,2.541192E0,4.1833096E0,6.9197965E0,-2.9832417E-1,-2.470417E-1,-2.0953233E0,-1.5832533E0,-1.0738221E0,-5.756241E-1,-7.127712E-2,4.4004276E-1,9.4278175E-1,1.5676783E0,2.2003666E-1,2.8262815E0,3.7178097E0,4.8226733E0,6.4905176E0,9.7447405E0,-2.2298186E-1,-1.975677E-1,-1.7214146E-1,-1.4673112E-1,-1.21290825E-1,-9.588368E-2,-7.044805E-2,-4.5029845E-2,-1.9601054E-2,5.628965E-3,3.1043122E-2,5.6466866E-2,8.188028E-2,1.0729492E-1,1.3271514E-1,1.7030426E0,2.7127424E-1,3.0790818E-1,3.488842E-1,4.0018412E-1,4.4880724E-1,5.1244134E-1,5.975937E-1,7.2090924E-1,9.194359E-1,1.4776161E0,1.5813196E-1,1.83542E-1],"categories":[],"categories_nodes":[],"categories_segments":[],"categories_sizes":[],"default_left":[0,0,0,0,0,0,0,0,0,0,0,0,0,0,0,0,0,0,0,0,0,0,0,0,0,0,0,0,0,0,0,0,0,0,0,0,0,0,0,0,0,0,0,0,0,0,0,0,0,0,0,0,0,0,0,0,0,0,0],"id":13,"left_children":[1,3,5,7,9,11,13,15,17,19,21,23,25,27,29,-1,-1,31,33,35,37,39,41,43,45,-1,47,49,51,53,55,-1,-1,-1,-1,-1,-1,-1,-1,-1,-1,-1,-1,-1,-1,-1,57,-1,-1,-1,-1,-1,-1,-1,-1,-1,-1,-1,-1],"loss_changes":[2.3023584E5,3.86611E4,4.0983E4,4.8870156E3,5.3820654E3,5.572586E3,8.2963125E3,5.583047E2,7.471797E2,7.0417725E2,6.531831E2,8.531553E2,5.1853906E2,1.3627578E3,1.5400781E3,0E0,0E0,4.4910156E1,6.75791E1,7.250049E1,7.971594E1,8.5406845E1,6.694409E1,4.5724365E1,1.3260742E2,0E0,2.5666016E1,9.738672E1,8.916406E1,2.9466797E2,1.4227734E2,0E0,0E0,0E0,0E0,0E0,0E0,0E0,0E0,0E0,0E0,0E0,0E0,0E0,0E0,0E0,1.4750977E1,0E0,0E0,0E0,0E0,0E0,0E0,0E0,0E0,0E0,0E0,0E0,0E0],"parents":[2147483647,0,0,1,1,2,2,3,3,4,4,5,5,6,6,7,7,8,8,9,9,10,10,11,11,12,12,13,13,14,14,17,17,18,18,19,19,20,20,21,21,22,22,23,23,24,24,26,26,27,27,28,28,29,29,30,30,46,46],"right_children":[2,4,6,8,10,12,14,16,18,20,22,24,26,28,30,-1,-1,32,34,36,38,40,42,44,46,-1,48,50,52,54,56,-1,-1,-1,-1,-1,-1,-1,-1,-1,-1,-1,-1,-1,-1,-1,58,-1,-1,-1,-1,-1,-1,-1,-1,-1,-1,-1,-1],"split_conditions":[1.5E1,7E0,2.5E1,3E0,1.1E1,2E1,3.4E1,2E0,5E0,9E0,1.3E1,1.7E1,2.2E1,2.9E1,4.4E1,-2.9832417E-1,-2.470417E-1,4E0,6E0,8E0,1E1,1.2E1,1.4E1,1.6E1,1.8E1,2.2003666E-1,2.4E1,2.7E1,3.1E1,3.8E1,5.7E1,-2.2298186E-1,-1.975677E-1,-1.7214146E-1,-1.4673112E-1,-1.21290825E-1,-9.588368E-2,-7.044805E-2,-4.5029845E-2,-1.9601054E-2,5.628965E-3,3.1043122E-2,5.6466866E-2,8.188028E-2,1.0729492E-1,1.3271514E-1,1.9E1,2.7127424E-1,3.0790818E-1,3.488842E-1,4.0018412E-1,4.4880724E-1,5.1244134E-1,5.975937E-1,7.2090924E-1,9.194359E-1,1.4776161E0,1.5813196E-1,1.83542E-1],"split_indices":[21,21,21,21,21,21,21,21,21,21,21,21,21,21,21,0,0,21,21,21,21,21,21,21,21,0,21,21,21,21,21,0,0,0,0,0,0,0,0,0,0,0,0,0,0,0,21,0,0,0,0,0,0,0,0,0,0,0,0],"split_type":[0,0,0,0,0,0,0,0,0,0,0,0,0,0,0,0,0,0,0,0,0,0,0,0,0,0,0,0,0,0,0,0,0,0,0,0,0,0,0,0,0,0,0,0,0,0,0,0,0,0,0,0,0,0,0,0,0,0,0],"sum_hessian":[6.4934E4,4.3506E4,2.1428E4,2.1899E4,2.1607E4,1.5048E4,6.38E3,9.856E3,1.2043E4,1.1633E4,9.974E3,9.131E3,5.917E3,4.925E3,1.455E3,5.925E3,3.931E3,5.677E3,6.366E3,5.963E3,5.67E3,5.278E3,4.696E3,4.059E3,5.072E3,2.715E3,3.202E3,2.863E3,2.062E3,1.269E3,1.86E2,2.625E3,3.052E3,2.859E3,3.507E3,2.655E3,3.308E3,2.754E3,2.916E3,2.708E3,2.57E3,2.343E3,2.353E3,2.122E3,1.937E3,1.857E3,3.215E3,2.245E3,9.57E2,1.612E3,1.251E3,1.001E3,1.061E3,7.53E2,5.16E2,1.72E2,1.4E1,1.721E3,1.494E3],"tree_param":{"num_deleted":"0","num_feature":"77","num_nodes":"59","size_leaf_vector":"1"}},{"base_weights":[2.0373543E-3,-1.1875547E0,2.417716E0,-2.0304317E0,-3.327697E-1,1.6817138E0,4.530613E0,-2.5021484E0,-1.6433723E0,-7.4902093E-1,1.5174153E-1,1.1625202E0,2.3806343E0,4.0401206E0,6.673645E0,-2.70471E-1,-2.2454293E-1,-1.8860409E0,-1.4251351E0,-9.6664405E-1,-5.182586E-1,-6.3962534E-2,3.9626995E-1,8.4879625E-1,1.4113979E0,2.0936944E0,2.7667425E0,3.5647728E0,4.620975E0,6.2494307E0,9.218015E0,-2.0069216E-1,-1.7781739E-1,-1.5493332E-1,-1.3206223E-1,-1.0916628E-1,-8.629824E-2,-6.340581E-2,-4.0528424E-2,-1.7641691E-2,5.066325E-3,2.794014E-2,5.0822563E-2,7.369608E-2,9.6570954E-2,1.1945075E-1,1.5331551E0,1.8567525E-1,2.2270663E-1,2.5401506E-1,2.892723E-1,3.3729693E-1,3.8168982E-1,4.3594986E-1,5.0552607E-1,5.764753E-1,6.734647E-1,8.6062527E-1,1.3810272E0,1.4232789E-1,1.6520004E-1],"categories":[],"categories_nodes":[],"categories_segments":[],"categories_sizes":[],"default_left":[0,0,0,0,0,0,0,0,0,0,0,0,0,0,0,0,0,0,0,0,0,0,0,0,0,0,0,0,0,0,0,0,0,0,0,0,0,0,0,0,0,0,0,0,0,0,0,0,0,0,0,0,0,0,0,0,0,0,0,0,0],"id":14,"left_children":[1,3,5,7,9,11,13,15,17,19,21,23,25,27,29,-1,-1,31,33,35,37,39,41,43,45,47,49,51,53,55,57,-1,-1,-1,-1,-1,-1,-1,-1,-1,-1,-1,-1,-1,-1,-1,59,-1,-1,-1,-1,-1,-1,-1,-1,-1,-1,-1,-1,-1,-1],"loss_changes":[1.8661708E5,3.132155E4,3.3254414E4,3.9529922E3,4.363953E3,5.730789E3,5.6808125E3,4.57E2,6.02041E2,5.689009E2,5.2948755E2,6.892168E2,6.953164E2,1.1463594E3,8.940586E2,0E0,0E0,3.2617188E1,5.190039E1,5.6802246E1,6.3539795E1,6.931369E1,5.3437683E1,3.534619E1,1.0486035E2,7.8302734E1,2.0166016E1,3.5783203E1,1.1274219E2,4.43125E1,5.3101562E1,0E0,0E0,0E0,0E0,0E0,0E0,0E0,0E0,0E0,0E0,0E0,0E0,0E0,0E0,0E0,8.891113E0,0E0,0E0,0E0,0E0,0E0,0E0,0E0,0E0,0E0,0E0,0E0,0E0,0E0,0E0],"parents":[2147483647,0,0,1,1,2,2,3,3,4,4,5,5,6,6,7,7,8,8,9,9,10,10,11,11,12,12,13,13,14,14,17,17,18,18,19,19,20,20,21,21,22,22,23,23,24,24,25,25,26,26,27,27,28,28,29,29,30,30,46,46],"right_children":[2,4,6,8,10,12,14,16,18,20,22,24,26,28,30,-1,-1,32,34,36,38,40,42,44,46,48,50,52,54,56,58,-1,-1,-1,-1,-1,-1,-1,-1,-1,-1,-1,-1,-1,-1,-1,60,-1,-1,-1,-1,-1,-1,-1,-1,-1,-1,-1,-1,-1,-1],"split_conditions":[1.5E1,7E0,2.6E1,3E0,1.1E1,2E1,3.6E1,1E0,5E0,9E0,1.3E1,1.7E1,2.3E1,3E1,4.5E1,-2.70471E-1,-2.2454293E-1,4E0,6E0,8E0,1E1,1.2E1,1.4E1,1.6E1,1.8E1,2.1E1,2.4E1,2.8E1,3.3E1,3.9E1,5.8E1,-2.0069216E-1,-1.7781739E-1,-1.5493332E-1,-1.3206223E-1,-1.0916628E-1,-8.629824E-2,-6.340581E-2,-4.0528424E-2,-1.7641691E-2,5.066325E-3,2.794014E-2,5.0822563E-2,7.369608E-2,9.6570954E-2,1.1945075E-1,1.9E1,1.8567525E-1,2.2270663E-1,2.5401506E-1,2.892723E-1,3.3729693E-1,3.8168982E-1,4.3594986E-1,5.0552607E-1,5.764753E-1,6.734647E-1,8.6062527E-1,1.3810272E0,1.4232789E-1,1.6520004E-1],"split_indices":[21,21,21,21,21,21,21,21,21,21,21,21,21,21,21,0,0,21,21,21,21,21,21,21,21,21,21,21,21,21,21,0,0,0,0,0,0,0,0,0,0,0,0,0,0,0,21,0,0,0,0,0,0,0,0,0,0,0,0,0,0],"split_type":[0,0,0,0,0,0,0,0,0,0,0,0,0,0,0,0,0,0,0,0,0,0,0,0,0,0,0,0,0,0,0,0,0,0,0,0,0,0,0,0,0,0,0,0,0,0,0,0,0,0,0,0,0,0,0,0,0,0,0,0,0],"sum_hessian":[6.4934E4,4.3506E4,2.1428E4,2.1899E4,2.1607E4,1.5897E4,5.531E3,9.856E3,1.2043E4,1.1633E4,9.974E3,9.131E3,6.766E3,4.507E3,1.024E3,5.482E3,4.374E3,5.677E3,6.366E3,5.963E3,5.67E3,5.278E3,4.696E3,4.059E3,5.072E3,3.9E3,2.866E3,2.492E3,2.015E3,8.84E2,1.4E2,2.625E3,3.052E3,2.859E3,3.507E3,2.655E3,3.308E3,2.754E3,2.916E3,2.708E3,2.57E3,2.343E3,2.353E3,2.122E3,1.937E3,1.857E3,3.215E3,1.437E3,2.463E3,1.06E3,1.806E3,1.446E3,1.046E3,1.279E3,7.36E2,4.59E2,4.25E2,1.28E2,1.2E1,1.721E3,1.494E3],"tree_param":{"num_deleted":"0","num_feature":"77","num_nodes":"61","size_leaf_vector":"1"}},{"base_weights":[2.0386865E-3,-1.068992E0,2.177004E0,-1.8276697E0,-2.995497E-1,1.444972E0,3.9015257E0,-2.2520852E0,-1.4793394E0,-6.7440253E-1,1.3667461E-1,1.0467716E0,2.0574965E0,3.391526E0,5.6174297E0,-2.4342881E-1,-2.0209377E-1,-1.6976796E0,-1.2828236E0,-8.701803E-1,-4.6662733E-1,-5.7378866E-2,3.5687295E-1,7.642048E-1,1.2707367E0,1.7773788E-1,2.2912593E0,3.0148919E0,3.9079046E0,5.205192E0,7.6529455E0,-1.8063058E-1,-1.6004148E-1,-1.394454E-1,-1.1885973E-1,-9.825378E-2,-7.767105E-2,-5.7067513E-2,-3.6476985E-2,-1.587814E-2,4.55993E-3,2.5147352E-2,4.5742493E-2,6.632994E-2,8.691884E-2,1.0751212E-1,1.3802463E0,2.1204062E-1,2.3855808E-1,2.8283632E-1,3.2448086E-1,3.6300838E-1,4.1569334E-1,4.734016E-1,5.646183E-1,7.1781886E-1,1.119022E0,1.2810332E-1,1.4869116E-1],"categories":[],"categories_nodes":[],"categories_segments":[],"categories_sizes":[],"default_left":[0,0,0,0,0,0,0,0,0,0,0,0,0,0,0,0,0,0,0,0,0,0,0,0,0,0,0,0,0,0,0,0,0,0,0,0,0,0,0,0,0,0,0,0,0,0,0,0,0,0,0,0,0,0,0,0,0,0,0],"id":15,"left_children":[1,3,5,7,9,11,13,15,17,19,21,23,25,27,29,-1,-1,31,33,35,37,39,41,43,45,-1,47,49,51,53,55,-1,-1,-1,-1,-1,-1,-1,-1,-1,-1,-1,-1,-1,-1,-1,57,-1,-1,-1,-1,-1,-1,-1,-1,-1,-1,-1,-1],"loss_changes":[1.5127655E5,2.5375762E4,2.6992977E4,3.1969844E3,3.5388076E3,3.6373672E3,5.4749375E3,3.6566016E2,4.8479102E2,4.594712E2,4.2924973E2,5.5659863E2,3.4275586E2,8.7702734E2,1.0533398E3,0E0,0E0,2.303418E1,3.94834E1,4.427832E1,5.053894E1,5.6263687E1,4.2575317E1,2.710791E1,8.2635254E1,0E0,1.5E0,5.2916016E1,4.976953E1,1.2255078E2,1.3735449E2,0E0,0E0,0E0,0E0,0E0,0E0,0E0,0E0,0E0,0E0,0E0,0E0,0E0,0E0,0E0,4.449707E0,0E0,0E0,0E0,0E0,0E0,0E0,0E0,0E0,0E0,0E0,0E0,0E0],"parents":[2147483647,0,0,1,1,2,2,3,3,4,4,5,5,6,6,7,7,8,8,9,9,10,10,11,11,12,12,13,13,14,14,17,17,18,18,19,19,20,20,21,21,22,22,23,23,24,24,26,26,27,27,28,28,29,29,30,30,46,46],"right_children":[2,4,6,8,10,12,14,16,18,20,22,24,26,28,30,-1,-1,32,34,36,38,40,42,44,46,-1,48,50,52,54,56,-1,-1,-1,-1,-1,-1,-1,-1,-1,-1,-1,-1,-1,-1,-1,58,-1,-1,-1,-1,-1,-1,-1,-1,-1,-1,-1,-1],"split_conditions":[1.5E1,7E0,2.5E1,3E0,1.1E1,2E1,3.4E1,1E0,5E0,9E0,1.3E1,1.7E1,2.2E1,2.9E1,4.3E1,-2.4342881E-1,-2.0209377E-1,4E0,6E0,8E0,1E1,1.2E1,1.4E1,1.6E1,1.8E1,1.7773788E-1,2.3E1,2.7E1,3.1E1,3.7E1,5.4E1,-1.8063058E-1,-1.6004148E-1,-1.394454E-1,-1.1885973E-1,-9.825378E-2,-7.767105E-2,-5.7067513E-2,-3.6476985E-2,-1.587814E-2,4.55993E-3,2.5147352E-2,4.5742493E-2,6.632994E-2,8.691884E-2,1.0751212E-1,1.9E1,2.1204062E-1,2.3855808E-1,2.8283632E-1,3.2448086E-1,3.6300838E-1,4.1569334E-1,4.734016E-1,5.646183E-1,7.1781886E-1,1.119022E0,1.2810332E-1,1.4869116E-1],"split_indices":[21,21,21,21,21,21,21,21,21,21,21,21,21,21,21,0,0,21,21,21,21,21,21,21,21,0,21,21,21,21,21,0,0,0,0,0,0,0,0,0,0,0,0,0,0,0,21,0,0,0,0,0,0,0,0,0,0,0,0],"split_type":[0,0,0,0,0,0,0,0,0,0,0,0,0,0,0,0,0,0,0,0,0,0,0,0,0,0,0,0,0,0,0,0,0,0,0,0,0,0,0,0,0,0,0,0,0,0,0,0,0,0,0,0,0,0,0,0,0,0,0],"sum_hessian":[6.4934E4,4.3506E4,2.1428E4,2.1899E4,2.1607E4,1.5048E4,6.38E3,9.856E3,1.2043E4,1.1633E4,9.974E3,9.131E3,5.917E3,4.925E3,1.455E3,5.482E3,4.374E3,5.677E3,6.366E3,5.963E3,5.67E3,5.278E3,4.696E3,4.059E3,5.072E3,2.715E3,3.202E3,2.863E3,2.062E3,1.217E3,2.38E2,2.625E3,3.052E3,2.859E3,3.507E3,2.655E3,3.308E3,2.754E3,2.916E3,2.708E3,2.57E3,2.343E3,2.353E3,2.122E3,1.937E3,1.857E3,3.215E3,1.185E3,2.017E3,1.612E3,1.251E3,1.001E3,1.061E3,6.05E2,6.12E2,2.15E2,2.3E1,1.721E3,1.494E3],"tree_param":{"num_deleted":"0","num_feature":"77","num_nodes":"59","size_leaf_vector":"1"}},{"base_weights":[2.0069254E-3,-9.6228254E-1,1.9602569E0,-1.6451788E0,-2.696506E-1,1.3627721E0,3.6751616E0,-2.0270233E0,-1.3317043E0,-6.072432E-1,1.2311345E-1,9.425915E-1,1.9281225E0,3.228302E0,5.237125E0,-2.1776782E-1,-1.7969099E-1,-1.5281478E0,-1.1547389E0,-7.8335947E-1,-4.201572E-1,-5.1453706E-2,3.2141384E-1,6.880684E-1,1.1441332E0,1.6965742E0,2.2390196E0,2.889993E0,3.6851957E0,4.923391E0,7.54103E0,-1.625744E-1,-1.4404258E-1,-1.2550573E-1,-1.0697716E-1,-8.84321E-2,-6.990629E-2,-5.13628E-2,-3.2830525E-2,-1.4290954E-2,4.1041556E-3,2.2633681E-2,4.1170236E-2,5.9700068E-2,7.823145E-2,9.676676E-2,1.2426187E0,1.4935924E-1,1.8102883E-1,2.0480421E-1,2.344381E-1,2.7336076E-1,3.0938137E-1,3.436747E-1,3.9244914E-1,4.5511308E-1,5.4642266E-1,7.022795E-1,1.169349E0,1.1530043E-1,1.33832E-1],"categories":[],"categories_nodes":[],"categories_segments":[],"categories_sizes":[],"default_left":[0,0,0,0,0,0,0,0,0,0,0,0,0,0,0,0,0,0,0,0,0,0,0,0,0,0,0,0,0,0,0,0,0,0,0,0,0,0,0,0,0,0,0,0,0,0,0,0,0,0,0,0,0,0,0,0,0,0,0,0,0],"id":16,"left_children":[1,3,5,7,9,11,13,15,17,19,21,23,25,27,29,-1,-1,31,33,35,37,39,41,43,45,47,49,51,53,55,57,-1,-1,-1,-1,-1,-1,-1,-1,-1,-1,-1,-1,-1,-1,-1,59,-1,-1,-1,-1,-1,-1,-1,-1,-1,-1,-1,-1,-1,-1],"loss_changes":[1.22629914E5,2.0559035E4,2.1901406E4,2.5851094E3,2.8700125E3,3.7460332E3,3.7596484E3,2.980586E2,3.9010156E2,3.7096338E2,3.4801804E2,4.4933545E2,4.4398633E2,5.8964453E2,7.229531E2,0E0,0E0,1.5607422E1,2.9679688E1,3.4305664E1,4.010022E1,4.5680832E1,3.38472E1,2.0585938E1,6.4859375E1,5.4299805E1,8.963867E0,1.2732422E1,2.0925781E1,9.32207E1,3.4140625E1,0E0,0E0,0E0,0E0,0E0,0E0,0E0,0E0,0E0,0E0,0E0,0E0,0E0,0E0,0E0,1.125E0,0E0,0E0,0E0,0E0,0E0,0E0,0E0,0E0,0E0,0E0,0E0,0E0,0E0,0E0],"parents":[2147483647,0,0,1,1,2,2,3,3,4,4,5,5,6,6,7,7,8,8,9,9,10,10,11,11,12,12,13,13,14,14,17,17,18,18,19,19,20,20,21,21,22,22,23,23,24,24,25,25,26,26,27,27,28,28,29,29,30,30,46,46],"right_children":[2,4,6,8,10,12,14,16,18,20,22,24,26,28,30,-1,-1,32,34,36,38,40,42,44,46,48,50,52,54,56,58,-1,-1,-1,-1,-1,-1,-1,-1,-1,-1,-1,-1,-1,-1,-1,60,-1,-1,-1,-1,-1,-1,-1,-1,-1,-1,-1,-1,-1,-1],"split_conditions":[1.5E1,7E0,2.6E1,3E0,1.1E1,2E1,3.5E1,2E0,5E0,9E0,1.3E1,1.7E1,2.3E1,3E1,4.5E1,-2.1776782E-1,-1.7969099E-1,4E0,6E0,8E0,1E1,1.2E1,1.4E1,1.6E1,1.8E1,2.1E1,2.4E1,2.8E1,3.2E1,3.9E1,5.9E1,-1.625744E-1,-1.4404258E-1,-1.2550573E-1,-1.0697716E-1,-8.84321E-2,-6.990629E-2,-5.13628E-2,-3.2830525E-2,-1.4290954E-2,4.1041556E-3,2.2633681E-2,4.1170236E-2,5.9700068E-2,7.823145E-2,9.676676E-2,1.9E1,1.4935924E-1,1.8102883E-1,2.0480421E-1,2.344381E-1,2.7336076E-1,3.0938137E-1,3.436747E-1,3.9244914E-1,4.5511308E-1,5.4642266E-1,7.022795E-1,1.169349E0,1.1530043E-1,1.33832E-1],"split_indices":[21,21,21,21,21,21,21,21,21,21,21,21,21,21,21,0,0,21,21,21,21,21,21,21,21,21,21,21,21,21,21,0,0,0,0,0,0,0,0,0,0,0,0,0,0,0,21,0,0,0,0,0,0,0,0,0,0,0,0,0,0],"split_type":[0,0,0,0,0,0,0,0,0,0,0,0,0,0,0,0,0,0,0,0,0,0,0,0,0,0,0,0,0,0,0,0,0,0,0,0,0,0,0,0,0,0,0,0,0,0,0,0,0,0,0,0,0,0,0,0,0,0,0,0,0],"sum_hessian":[6.4934E4,4.3506E4,2.1428E4,2.1899E4,2.1607E4,1.5897E4,5.531E3,9.856E3,1.2043E4,1.1633E4,9.974E3,9.131E3,6.766E3,4.308E3,1.223E3,5.925E3,3.931E3,5.677E3,6.366E3,5.963E3,5.67E3,5.278E3,4.696E3,4.059E3,5.072E3,3.9E3,2.866E3,2.492E3,1.816E3,1.083E3,1.4E2,2.625E3,3.052E3,2.859E3,3.507E3,2.655E3,3.308E3,2.754E3,2.916E3,2.708E3,2.57E3,2.343E3,2.353E3,2.122E3,1.937E3,1.857E3,3.215E3,1.437E3,2.463E3,1.06E3,1.806E3,1.446E3,1.046E3,9.19E2,8.97E2,6.58E2,4.25E2,1.29E2,1.1E1,1.721E3,1.494E3],"tree_param":{"num_deleted":"0","num_feature":"77","num_nodes":"61","size_leaf_vector":"1"}},{"base_weights":[1.995927E-3,-8.6624104E-1,1.765232E0,-1.480932E0,-2.4274063E-1,1.1708928E0,3.165082E0,-1.8244628E0,-1.1988277E0,-5.467976E-1,1.1090763E-1,8.488229E-1,1.665988E0,2.6930323E0,4.396301E0,-1.9731759E-1,-1.6353844E-1,-1.3755633E0,-1.0394586E0,-7.0521766E-1,-3.783327E-1,-4.6121135E-2,2.8949907E-1,6.195417E-1,1.0301816E0,1.4355004E-1,1.8577889E-1,2.3726265E-1,3.0038486E0,4.04401E0,5.9999437E0,-1.4632314E-1,-1.2964305E-1,-1.1295954E-1,-9.6282504E-2,-7.95922E-2,-6.2917784E-2,-4.6228364E-2,-2.9548628E-2,-1.2862401E-2,3.6938542E-3,2.0371292E-2,3.705497E-2,5.3732872E-2,7.04123E-2,8.709522E-2,1.1187444E-1,2.7847275E-1,3.1729236E-1,3.7571117E-1,4.500322E-1,5.627786E-1,8.8452446E-1],"categories":[],"categories_nodes":[],"categories_segments":[],"categories_sizes":[],"default_left":[0,0,0,0,0,0,0,0,0,0,0,0,0,0,0,0,0,0,0,0,0,0,0,0,0,0,0,0,0,0,0,0,0,0,0,0,0,0,0,0,0,0,0,0,0,0,0,0,0,0,0,0,0],"id":17,"left_children":[1,3,5,7,9,11,13,15,17,19,21,23,25,27,29,-1,-1,31,33,35,37,39,41,43,45,-1,-1,-1,47,49,51,-1,-1,-1,-1,-1,-1,-1,-1,-1,-1,-1,-1,-1,-1,-1,-1,-1,-1,-1,-1,-1,-1],"loss_changes":[9.9419945E4,1.66569E4,1.7781547E4,2.0899375E3,2.3279106E3,2.373082E3,3.625879E3,2.3784766E2,3.136543E2,2.9938843E2,2.8218597E2,3.625923E2,2.2602148E2,3.993047E2,8.7016797E2,0E0,0E0,9.896484E0,2.1967773E1,2.6382812E1,3.1727722E1,3.709681E1,2.684024E1,1.5439087E1,5.066748E1,0E0,0E0,0E0,1.7761719E1,9.0609375E1,1.3375E2,0E0,0E0,0E0,0E0,0E0,0E0,0E0,0E0,0E0,0E0,0E0,0E0,0E0,0E0,0E0,0E0,0E0,0E0,0E0,0E0,0E0,0E0],"parents":[2147483647,0,0,1,1,2,2,3,3,4,4,5,5,6,6,7,7,8,8,9,9,10,10,11,11,12,12,13,13,14,14,17,17,18,18,19,19,20,20,21,21,22,22,23,23,24,24,28,28,29,29,30,30],"right_children":[2,4,6,8,10,12,14,16,18,20,22,24,26,28,30,-1,-1,32,34,36,38,40,42,44,46,-1,-1,-1,48,50,52,-1,-1,-1,-1,-1,-1,-1,-1,-1,-1,-1,-1,-1,-1,-1,-1,-1,-1,-1,-1,-1,-1],"split_conditions":[1.5E1,7E0,2.5E1,3E0,1.1E1,2E1,3.3E1,1E0,5E0,9E0,1.3E1,1.7E1,2.2E1,2.8E1,4.2E1,-1.9731759E-1,-1.6353844E-1,4E0,6E0,8E0,1E1,1.2E1,1.4E1,1.6E1,1.8E1,1.4355004E-1,1.8577889E-1,2.3726265E-1,3E1,3.7E1,5.2E1,-1.4632314E-1,-1.2964305E-1,-1.1295954E-1,-9.6282504E-2,-7.95922E-2,-6.2917784E-2,-4.6228364E-2,-2.9548628E-2,-1.2862401E-2,3.6938542E-3,2.0371292E-2,3.705497E-2,5.3732872E-2,7.04123E-2,8.709522E-2,1.1187444E-1,2.7847275E-1,3.1729236E-1,3.7571117E-1,4.500322E-1,5.627786E-1,8.8452446E-1],"split_indices":[21,21,21,21,21,21,21,21,21,21,21,21,21,21,21,0,0,21,21,21,21,21,21,21,21,0,0,0,21,21,21,0,0,0,0,0,0,0,0,0,0,0,0,0,0,0,0,0,0,0,0,0,0],"split_type":[0,0,0,0,0,0,0,0,0,0,0,0,0,0,0,0,0,0,0,0,0,0,0,0,0,0,0,0,0,0,0,0,0,0,0,0,0,0,0,0,0,0,0,0,0,0,0,0,0,0,0,0,0],"sum_hessian":[6.4934E4,4.3506E4,2.1428E4,2.1899E4,2.1607E4,1.5048E4,6.38E3,9.856E3,1.2043E4,1.1633E4,9.974E3,9.131E3,5.917E3,4.62E3,1.76E3,5.482E3,4.374E3,5.677E3,6.366E3,5.963E3,5.67E3,5.278E3,4.696E3,4.059E3,5.072E3,2.715E3,3.202E3,2.295E3,2.325E3,1.451E3,3.09E2,2.625E3,3.052E3,2.859E3,3.507E3,2.655E3,3.308E3,2.754E3,2.916E3,2.708E3,2.57E3,2.343E3,2.353E3,2.122E3,1.937E3,1.857E3,3.215E3,1.046E3,1.279E3,9.1E2,5.41E2,2.79E2,3E1],"tree_param":{"num_deleted":"0","num_feature":"77","num_nodes":"53","size_leaf_vector":"1"}},{"base_weights":[1.9001059E-3,-7.798012E-1,1.5894439E0,-1.3331057E0,-2.1852072E-1,1.1039253E0,2.9826446E0,-1.6421545E0,-1.0792344E0,-4.9239445E-1,9.992193E-2,7.643047E-1,1.5605992E0,2.6557279E0,4.4077744E0,-1.7651878E-1,-1.4537676E-1,-1.2382317E0,-9.3570274E-1,-6.348875E-1,-3.4068912E-1,-4.1321296E-2,2.607742E-1,5.5786425E-1,9.274003E-1,1.3709165E0,1.8146597E-1,2.4109688E0,3.1416875E-1,4.134107E0,6.3725505E0,-1.316964E-1,-1.16683E-1,-1.01667546E-1,-8.6656995E-2,-7.163598E-2,-5.662791E-2,-4.16072E-2,-2.6594777E-2,-1.1576655E-2,3.3246395E-3,1.8335018E-2,3.3351045E-2,4.8362117E-2,6.337466E-2,8.552666E-1,1.0927778E-1,1.2008865E-1,1.4655319E-1,2.2233365E-1,2.5759962E-1,3.825587E-1,4.5445117E-1,5.838928E-1,9.81077E-1,7.839038E-2,9.259615E-2],"categories":[],"categories_nodes":[],"categories_segments":[],"categories_sizes":[],"default_left":[0,0,0,0,0,0,0,0,0,0,0,0,0,0,0,0,0,0,0,0,0,0,0,0,0,0,0,0,0,0,0,0,0,0,0,0,0,0,0,0,0,0,0,0,0,0,0,0,0,0,0,0,0,0,0,0,0],"id":18,"left_children":[1,3,5,7,9,11,13,15,17,19,21,23,25,27,29,-1,-1,31,33,35,37,39,41,43,45,47,-1,49,-1,51,53,-1,-1,-1,-1,-1,-1,-1,-1,-1,-1,-1,-1,-1,-1,55,-1,-1,-1,-1,-1,-1,-1,-1,-1,-1,-1],"loss_changes":[8.05927E4,1.3495684E4,1.4450945E4,1.6892578E3,1.8884739E3,2.4412734E3,2.4950117E3,1.9370703E2,2.5195996E2,2.4151978E2,2.2883025E2,2.921006E2,2.9176367E2,4.730957E2,4.1972656E2,0E0,0E0,5.544922E0,1.5927734E1,2.0104736E1,2.5020813E1,3.0133892E1,2.1221558E1,1.13927E1,4.010254E1,3.433252E1,0E0,3.966797E1,0E0,1.3756836E1,4.548828E0,0E0,0E0,0E0,0E0,0E0,0E0,0E0,0E0,0E0,0E0,0E0,0E0,0E0,0E0,2.3144531E-1,0E0,0E0,0E0,0E0,0E0,0E0,0E0,0E0,0E0,0E0,0E0],"parents":[2147483647,0,0,1,1,2,2,3,3,4,4,5,5,6,6,7,7,8,8,9,9,10,10,11,11,12,12,13,13,14,14,17,17,18,18,19,19,20,20,21,21,22,22,23,23,24,24,25,25,27,27,29,29,30,30,45,45],"right_children":[2,4,6,8,10,12,14,16,18,20,22,24,26,28,30,-1,-1,32,34,36,38,40,42,44,46,48,-1,50,-1,52,54,-1,-1,-1,-1,-1,-1,-1,-1,-1,-1,-1,-1,-1,-1,56,-1,-1,-1,-1,-1,-1,-1,-1,-1,-1,-1],"split_conditions":[1.5E1,7E0,2.6E1,3E0,1.1E1,2E1,3.6E1,2E0,5E0,9E0,1.3E1,1.7E1,2.3E1,3.1E1,4.6E1,-1.7651878E-1,-1.4537676E-1,4E0,6E0,8E0,1E1,1.2E1,1.4E1,1.6E1,1.9E1,2.1E1,1.8146597E-1,2.8E1,3.1416875E-1,4E1,5.9E1,-1.316964E-1,-1.16683E-1,-1.01667546E-1,-8.6656995E-2,-7.163598E-2,-5.662791E-2,-4.16072E-2,-2.6594777E-2,-1.1576655E-2,3.3246395E-3,1.8335018E-2,3.3351045E-2,4.8362117E-2,6.337466E-2,1.8E1,1.0927778E-1,1.2008865E-1,1.4655319E-1,2.2233365E-1,2.5759962E-1,3.825587E-1,4.5445117E-1,5.838928E-1,9.81077E-1,7.839038E-2,9.259615E-2],"split_indices":[21,21,21,21,21,21,21,21,21,21,21,21,21,21,21,0,0,21,21,21,21,21,21,21,21,21,0,21,0,21,21,0,0,0,0,0,0,0,0,0,0,0,0,0,0,21,0,0,0,0,0,0,0,0,0,0,0],"split_type":[0,0,0,0,0,0,0,0,0,0,0,0,0,0,0,0,0,0,0,0,0,0,0,0,0,0,0,0,0,0,0,0,0,0,0,0,0,0,0,0,0,0,0,0,0,0,0,0,0,0,0,0,0,0,0,0,0],"sum_hessian":[6.4934E4,4.3506E4,2.1428E4,2.1899E4,2.1607E4,1.5897E4,5.531E3,9.856E3,1.2043E4,1.1633E4,9.974E3,9.131E3,6.766E3,4.507E3,1.024E3,5.925E3,3.931E3,5.677E3,6.366E3,5.963E3,5.67E3,5.278E3,4.696E3,4.059E3,5.072E3,3.9E3,2.866E3,3.015E3,1.492E3,9.06E2,1.18E2,2.625E3,3.052E3,2.859E3,3.507E3,2.655E3,3.308E3,2.754E3,2.916E3,2.708E3,2.57E3,2.343E3,2.353E3,2.122E3,1.937E3,3.578E3,1.494E3,1.437E3,2.463E3,1.446E3,1.569E3,5.37E2,3.69E2,1.07E2,1.1E1,1.857E3,1.721E3],"tree_param":{"num_deleted":"0","num_feature":"77","num_nodes":"57","size_leaf_vector":"1"}},{"base_weights":[1.8507094E-3,-7.0200294E-1,1.4313415E0,-1.2000581E0,-1.9672194E-1,9.483174E-1,2.568718E0,-1.4780732E0,-9.715963E-1,-4.434296E-1,9.003432E-2,6.291725E-1,1.2757163E0,2.228249E0,3.7119734E0,-1.5886989E-1,-1.3084279E-1,-1.1146284E0,-8.4231913E-1,-5.715877E-1,-3.0680853E-1,-3.7001237E-2,2.3492056E-1,5.023519E-1,7.700673E-2,1.0996813E0,1.5035751E-1,1.9826049E0,2.5633423E0,3.4635773E0,5.3256164E0,-1.185318E-1,-1.0501852E-1,-9.150436E-2,-7.7993765E-2,-6.447505E-2,-5.09668E-2,-3.744802E-2,-2.3936175E-2,-1.0419418E-2,2.992318E-3,1.6502267E-2,3.0017367E-2,4.352822E-2,5.7040483E-2,1.0350441E-1,1.2391782E-1,1.8551967E-1,2.137179E-1,2.4387796E-1,2.8059477E-1,3.1853172E-1,3.8433537E-1,4.982357E-1,8.767523E-1],"categories":[],"categories_nodes":[],"categories_segments":[],"categories_sizes":[],"default_left":[0,0,0,0,0,0,0,0,0,0,0,0,0,0,0,0,0,0,0,0,0,0,0,0,0,0,0,0,0,0,0,0,0,0,0,0,0,0,0,0,0,0,0,0,0,0,0,0,0,0,0,0,0,0,0],"id":19,"left_children":[1,3,5,7,9,11,13,15,17,19,21,23,25,27,29,-1,-1,31,33,35,37,39,41,43,-1,45,-1,47,49,51,53,-1,-1,-1,-1,-1,-1,-1,-1,-1,-1,-1,-1,-1,-1,-1,-1,-1,-1,-1,-1,-1,-1,-1,-1],"loss_changes":[6.5342797E4,1.0934674E4,1.1735059E4,1.3650645E3,1.5322312E3,1.552585E3,2.416086E3,1.539375E2,2.0219434E2,1.9474121E2,1.8558481E2,1.23367676E2,2.6961816E2,3.549336E2,4.7725977E2,0E0,0E0,2.2661133E0,1.122168E1,1.5145386E1,1.9655762E1,2.448469E1,1.6721771E1,8.22583E0,0E0,1.3935547E1,0E0,1.2514648E1,3.0527344E0,5.1680664E1,3.975244E1,0E0,0E0,0E0,0E0,0E0,0E0,0E0,0E0,0E0,0E0,0E0,0E0,0E0,0E0,0E0,0E0,0E0,0E0,0E0,0E0,0E0,0E0,0E0,0E0],"parents":[2147483647,0,0,1,1,2,2,3,3,4,4,5,5,6,6,7,7,8,8,9,9,10,10,11,11,12,12,13,13,14,14,17,17,18,18,19,19,20,20,21,21,22,22,23,23,25,25,27,27,28,28,29,29,30,30],"right_children":[2,4,6,8,10,12,14,16,18,20,22,24,26,28,30,-1,-1,32,34,36,38,40,42,44,-1,46,-1,48,50,52,54,-1,-1,-1,-1,-1,-1,-1,-1,-1,-1,-1,-1,-1,-1,-1,-1,-1,-1,-1,-1,-1,-1,-1,-1],"split_conditions":[1.5E1,7E0,2.5E1,3E0,1.1E1,1.9E1,3.4E1,2E0,5E0,9E0,1.3E1,1.7E1,2.2E1,2.9E1,4.4E1,-1.5886989E-1,-1.3084279E-1,4E0,6E0,8E0,1E1,1.2E1,1.4E1,1.6E1,7.700673E-2,2.1E1,1.5035751E-1,2.7E1,3.2E1,3.8E1,5.8E1,-1.185318E-1,-1.0501852E-1,-9.150436E-2,-7.7993765E-2,-6.447505E-2,-5.09668E-2,-3.744802E-2,-2.3936175E-2,-1.0419418E-2,2.992318E-3,1.6502267E-2,3.0017367E-2,4.352822E-2,5.7040483E-2,1.0350441E-1,1.2391782E-1,1.8551967E-1,2.137179E-1,2.4387796E-1,2.8059477E-1,3.1853172E-1,3.8433537E-1,4.982357E-1,8.767523E-1],"split_indices":[21,21,21,21,21,21,21,21,21,21,21,21,21,21,21,0,0,21,21,21,21,21,21,21,0,21,0,21,21,21,21,0,0,0,0,0,0,0,0,0,0,0,0,0,0,0,0,0,0,0,0,0,0,0,0],"split_type":[0,0,0,0,0,0,0,0,0,0,0,0,0,0,0,0,0,0,0,0,0,0,0,0,0,0,0,0,0,0,0,0,0,0,0,0,0,0,0,0,0,0,0,0,0,0,0,0,0,0,0,0,0,0,0],"sum_hessian":[6.4934E4,4.3506E4,2.1428E4,2.1899E4,2.1607E4,1.5048E4,6.38E3,9.856E3,1.2043E4,1.1633E4,9.974E3,7.637E3,7.411E3,4.925E3,1.455E3,5.925E3,3.931E3,5.677E3,6.366E3,5.963E3,5.67E3,5.278E3,4.696E3,4.059E3,3.578E3,4.209E3,3.202E3,2.863E3,2.062E3,1.269E3,1.86E2,2.625E3,3.052E3,2.859E3,3.507E3,2.655E3,3.308E3,2.754E3,2.916E3,2.708E3,2.57E3,2.343E3,2.353E3,2.122E3,1.937E3,2.931E3,1.278E3,1.612E3,1.251E3,1.397E3,6.65E2,7.53E2,5.16E2,1.74E2,1.2E1],"tree_param":{"num_deleted":"0","num_feature":"77","num_nodes":"55","size_leaf_vector":"1"}},{"base_weights":[1.7847659E-3,-6.319823E-1,1.2889798E0,-1.0803118E0,-1.7710227E-1,8.947006E-1,2.4200284E0,-1.3303968E0,-8.747183E-1,-3.9935958E-1,8.1135176E-2,6.1903626E-1,1.2650969E0,2.1211567E0,3.4620376E0,-1.4405666E-1,-1.18973576E-1,-1.0033812E-1,-7.5827074E-1,-5.1461565E-1,-2.7631482E-1,-3.311302E-2,2.1165149E-1,4.5238772E-1,7.503144E-1,1.1097513E0,1.4725395E0,1.899344E-1,2.4188219E-1,3.2602193E0,5.2246326E-1,-8.23571E-2,-7.01966E-2,-5.8029976E-2,-4.587162E-2,-3.370459E-2,-2.1543369E-2,-9.377818E-3,2.6931714E-3,1.48527315E-2,2.7016953E-2,3.9177414E-2,5.1339407E-2,6.2859006E-2,8.172963E-2,9.774492E-2,1.1824546E-1,1.3263166E-1,1.5520471E-1,3.027939E-1,3.687059E-1],"categories":[],"categories_nodes":[],"categories_segments":[],"categories_sizes":[],"default_left":[0,0,0,0,0,0,0,0,0,0,0,0,0,0,0,0,0,0,0,0,0,0,0,0,0,0,0,0,0,0,0,0,0,0,0,0,0,0,0,0,0,0,0,0,0,0,0,0,0,0,0],"id":20,"left_children":[1,3,5,7,9,11,13,15,17,19,21,23,25,27,29,-1,-1,-1,31,33,35,37,39,41,43,45,47,-1,-1,49,-1,-1,-1,-1,-1,-1,-1,-1,-1,-1,-1,-1,-1,-1,-1,-1,-1,-1,-1,-1,-1],"loss_changes":[5.2980176E4,8.859885E3,9.52093E3,1.102791E3,1.2434092E3,1.6036416E3,1.6596387E3,1.2473047E2,1.6207227E2,1.5693799E2,1.5053215E2,1.8741724E2,1.9061133E2,2.3672852E2,3.3352246E2,0E0,0E0,0E0,7.576172E0,1.1241577E1,1.5370453E1,1.9900398E1,1.3123169E1,5.760315E0,2.6389404E1,1.4768066E1,2.489746E0,0E0,0E0,3.1341797E1,0E0,0E0,0E0,0E0,0E0,0E0,0E0,0E0,0E0,0E0,0E0,0E0,0E0,0E0,0E0,0E0,0E0,0E0,0E0,0E0,0E0],"parents":[2147483647,0,0,1,1,2,2,3,3,4,4,5,5,6,6,7,7,8,8,9,9,10,10,11,11,12,12,13,13,14,14,18,18,19,19,20,20,21,21,22,22,23,23,24,24,25,25,26,26,29,29],"right_children":[2,4,6,8,10,12,14,16,18,20,22,24,26,28,30,-1,-1,-1,32,34,36,38,40,42,44,46,48,-1,-1,50,-1,-1,-1,-1,-1,-1,-1,-1,-1,-1,-1,-1,-1,-1,-1,-1,-1,-1,-1,-1,-1],"split_conditions":[1.5E1,7E0,2.6E1,3E0,1.1E1,2E1,3.5E1,1E0,5E0,9E0,1.3E1,1.7E1,2.3E1,3E1,4.6E1,-1.4405666E-1,-1.18973576E-1,-1.0033812E-1,6E0,8E0,1E1,1.2E1,1.4E1,1.6E1,1.8E1,2.1E1,2.4E1,1.899344E-1,2.4188219E-1,4E1,5.2246326E-1,-8.23571E-2,-7.01966E-2,-5.8029976E-2,-4.587162E-2,-3.370459E-2,-2.1543369E-2,-9.377818E-3,2.6931714E-3,1.48527315E-2,2.7016953E-2,3.9177414E-2,5.1339407E-2,6.2859006E-2,8.172963E-2,9.774492E-2,1.1824546E-1,1.3263166E-1,1.5520471E-1,3.027939E-1,3.687059E-1],"split_indices":[21,21,21,21,21,21,21,21,21,21,21,21,21,21,21,0,0,0,21,21,21,21,21,21,21,21,21,0,0,21,0,0,0,0,0,0,0,0,0,0,0,0,0,0,0,0,0,0,0,0,0],"split_type":[0,0,0,0,0,0,0,0,0,0,0,0,0,0,0,0,0,0,0,0,0,0,0,0,0,0,0,0,0,0,0,0,0,0,0,0,0,0,0,0,0,0,0,0,0,0,0,0,0,0,0],"sum_hessian":[6.4934E4,4.3506E4,2.1428E4,2.1899E4,2.1607E4,1.5897E4,5.531E3,9.856E3,1.2043E4,1.1633E4,9.974E3,9.131E3,6.766E3,4.308E3,1.223E3,5.482E3,4.374E3,5.677E3,6.366E3,5.963E3,5.67E3,5.278E3,4.696E3,4.059E3,5.072E3,3.9E3,2.866E3,2.492E3,1.816E3,1.105E3,1.18E2,2.859E3,3.507E3,2.655E3,3.308E3,2.754E3,2.916E3,2.708E3,2.57E3,2.343E3,2.353E3,2.122E3,1.937E3,1.857E3,3.215E3,1.437E3,2.463E3,1.06E3,1.806E3,7.36E2,3.69E2],"tree_param":{"num_deleted":"0","num_feature":"77","num_nodes":"51","size_leaf_vector":"1"}},{"base_weights":[1.7098942E-3,-5.6893665E-1,1.1607522E0,-9.7248685E-1,-1.5944397E-1,7.6860726E-1,2.0838408E0,-1.1497936E0,-7.3635614E-1,-3.5969502E-1,7.312547E-2,5.089382E-1,1.034741E0,1.7665135E0,2.909671E0,-1.2876986E-1,-1.0234592E-1,-7.965869E-2,-6.3178934E-2,-4.633391E-1,-2.4886927E-1,-2.9613731E-2,1.9070841E-1,4.0741792E-1,6.21166E-2,8.9174306E-1,1.2192514E-1,1.5575054E-1,1.967767E-1,2.6681325E0,3.9993618E0,-5.2229147E-2,-4.128583E-2,-3.0335335E-2,-1.9389758E-2,-8.440415E-3,2.4239586E-3,1.3368112E-2,2.4316436E-2,3.5261568E-2,4.620814E-2,8.420245E-2,9.972029E-2,2.4828891E-1,2.9561186E-1,3.7652498E-1,6.860485E-1],"categories":[],"categories_nodes":[],"categories_segments":[],"categories_sizes":[],"default_left":[0,0,0,0,0,0,0,0,0,0,0,0,0,0,0,0,0,0,0,0,0,0,0,0,0,0,0,0,0,0,0,0,0,0,0,0,0,0,0,0,0,0,0,0,0,0,0],"id":21,"left_children":[1,3,5,7,9,11,13,15,17,19,21,23,25,27,29,-1,-1,-1,-1,31,33,35,37,39,-1,41,-1,-1,-1,43,45,-1,-1,-1,-1,-1,-1,-1,-1,-1,-1,-1,-1,-1,-1,-1,-1],"loss_changes":[4.2954816E4,7.1780938E3,7.72684E3,8.971914E2,1.0092256E3,1.0240234E3,1.6202949E3,1.930332E2,4.4535156E1,1.26395874E2,1.2211836E2,7.648389E1,1.7336523E2,1.560586E2,3.8615332E2,0E0,0E0,0E0,0E0,8.181519E0,1.1953766E1,1.6180153E1,1.0249741E1,3.8526E0,0E0,2.8425293E0,0E0,0E0,0E0,1.5729492E1,7.555615E1,0E0,0E0,0E0,0E0,0E0,0E0,0E0,0E0,0E0,0E0,0E0,0E0,0E0,0E0,0E0,0E0],"parents":[2147483647,0,0,1,1,2,2,3,3,4,4,5,5,6,6,7,7,8,8,9,9,10,10,11,11,12,12,13,13,14,14,19,19,20,20,21,21,22,22,23,23,25,25,29,29,30,30],"right_children":[2,4,6,8,10,12,14,16,18,20,22,24,26,28,30,-1,-1,-1,-1,32,34,36,38,40,-1,42,-1,-1,-1,44,46,-1,-1,-1,-1,-1,-1,-1,-1,-1,-1,-1,-1,-1,-1,-1,-1],"split_conditions":[1.5E1,7E0,2.5E1,4E0,1.1E1,1.9E1,3.3E1,2E0,6E0,9E0,1.3E1,1.7E1,2.2E1,2.8E1,4.2E1,-1.2876986E-1,-1.0234592E-1,-7.965869E-2,-6.3178934E-2,8E0,1E1,1.2E1,1.4E1,1.6E1,6.21166E-2,2.1E1,1.2192514E-1,1.5575054E-1,1.967767E-1,3.7E1,5.5E1,-5.2229147E-2,-4.128583E-2,-3.0335335E-2,-1.9389758E-2,-8.440415E-3,2.4239586E-3,1.3368112E-2,2.4316436E-2,3.5261568E-2,4.620814E-2,8.420245E-2,9.972029E-2,2.4828891E-1,2.9561186E-1,3.7652498E-1,6.860485E-1],"split_indices":[21,21,21,21,21,21,21,21,21,21,21,21,21,21,21,0,0,0,0,21,21,21,21,21,0,21,0,0,0,21,21,0,0,0,0,0,0,0,0,0,0,0,0,0,0,0,0],"split_type":[0,0,0,0,0,0,0,0,0,0,0,0,0,0,0,0,0,0,0,0,0,0,0,0,0,0,0,0,0,0,0,0,0,0,0,0,0,0,0,0,0,0,0,0,0,0,0],"sum_hessian":[6.4934E4,4.3506E4,2.1428E4,2.1899E4,2.1607E4,1.5048E4,6.38E3,1.2481E4,9.418E3,1.1633E4,9.974E3,7.637E3,7.411E3,4.62E3,1.76E3,5.925E3,6.556E3,5.911E3,3.507E3,5.963E3,5.67E3,5.278E3,4.696E3,4.059E3,3.578E3,4.209E3,3.202E3,2.295E3,2.325E3,1.451E3,3.09E2,2.655E3,3.308E3,2.754E3,2.916E3,2.708E3,2.57E3,2.343E3,2.353E3,2.122E3,1.937E3,2.931E3,1.278E3,9.1E2,5.41E2,2.91E2,1.8E1],"tree_param":{"num_deleted":"0","num_feature":"77","num_nodes":"47","size_leaf_vector":"1"}},{"base_weights":[1.6454967E-3,-5.121691E-1,1.0453027E0,-8.7539226E-1,-1.4355111E-1,7.249867E-1,1.9638386E0,-1.0792664E0,-7.0763546E-1,-3.2399574E-1,6.591619E-2,5.0137883E-1,1.0251584E0,1.7448599E0,2.9152453E0,-1.16778985E-1,-9.6579134E-2,-8.1292756E-2,-6.120558E-1,-4.171888E-1,-2.2416723E-1,-2.646441E-2,1.7185855E-1,4.116323E-1,6.632348E-2,8.9836454E-1,1.19383566E-1,1.5779183E0,2.0742312E-1,2.7557352E0,4.7391835E-1,-6.616122E-2,-5.686284E-2,-4.700822E-2,-3.715853E-2,-2.7302895E-2,-1.7451411E-2,-7.596726E-3,2.181629E-3,1.2031917E-2,2.188579E-2,3.173711E-2,4.6162043E-2,7.956299E-2,9.538978E-2,1.4570092E-1,1.6819803E-1,2.5518295E-1,3.1058308E-1],"categories":[],"categories_nodes":[],"categories_segments":[],"categories_sizes":[],"default_left":[0,0,0,0,0,0,0,0,0,0,0,0,0,0,0,0,0,0,0,0,0,0,0,0,0,0,0,0,0,0,0,0,0,0,0,0,0,0,0,0,0,0,0,0,0,0,0,0,0],"id":22,"left_children":[1,3,5,7,9,11,13,15,17,19,21,23,25,27,29,-1,-1,-1,31,33,35,37,39,41,-1,43,-1,45,-1,47,-1,-1,-1,-1,-1,-1,-1,-1,-1,-1,-1,-1,-1,-1,-1,-1,-1,-1,-1],"loss_changes":[3.4827023E4,5.8148623E3,6.2765684E3,7.3037305E2,8.19325E2,1.0513057E3,1.1008359E3,7.6552734E1,1.06461426E2,1.01727905E2,9.9083984E1,1.2162988E2,1.2273291E2,2.0808105E2,2.1020117E2,0E0,0E0,0E0,1.0236816E0,5.7944336E0,9.235535E0,1.3160148E1,7.9595184E0,1.9944092E1,0E0,4.001465E0,0E0,4.1069336E0,0E0,3.3149414E0,0E0,0E0,0E0,0E0,0E0,0E0,0E0,0E0,0E0,0E0,0E0,0E0,0E0,0E0,0E0,0E0,0E0,0E0,0E0],"parents":[2147483647,0,0,1,1,2,2,3,3,4,4,5,5,6,6,7,7,8,8,9,9,10,10,11,11,12,12,13,13,14,14,18,18,19,19,20,20,21,21,22,22,23,23,25,25,27,27,29,29],"right_children":[2,4,6,8,10,12,14,16,18,20,22,24,26,28,30,-1,-1,-1,32,34,36,38,40,42,-1,44,-1,46,-1,48,-1,-1,-1,-1,-1,-1,-1,-1,-1,-1,-1,-1,-1,-1,-1,-1,-1,-1,-1],"split_conditions":[1.5E1,7E0,2.6E1,3E0,1.1E1,2E1,3.6E1,1E0,5E0,9E0,1.3E1,1.8E1,2.3E1,3.1E1,4.9E1,-1.16778985E-1,-9.6579134E-2,-8.1292756E-2,6E0,8E0,1E1,1.2E1,1.4E1,1.6E1,6.632348E-2,2.1E1,1.19383566E-1,2.8E1,2.0742312E-1,4.1E1,4.7391835E-1,-6.616122E-2,-5.686284E-2,-4.700822E-2,-3.715853E-2,-2.7302895E-2,-1.7451411E-2,-7.596726E-3,2.181629E-3,1.2031917E-2,2.188579E-2,3.173711E-2,4.6162043E-2,7.956299E-2,9.538978E-2,1.4570092E-1,1.6819803E-1,2.5518295E-1,3.1058308E-1],"split_indices":[21,21,21,21,21,21,21,21,21,21,21,21,21,21,21,0,0,0,21,21,21,21,21,21,0,21,0,21,0,21,0,0,0,0,0,0,0,0,0,0,0,0,0,0,0,0,0,0,0],"split_type":[0,0,0,0,0,0,0,0,0,0,0,0,0,0,0,0,0,0,0,0,0,0,0,0,0,0,0,0,0,0,0,0,0,0,0,0,0,0,0,0,0,0,0,0,0,0,0,0,0],"sum_hessian":[6.4934E4,4.3506E4,2.1428E4,2.1899E4,2.1607E4,1.5897E4,5.531E3,9.856E3,1.2043E4,1.1633E4,9.974E3,9.131E3,6.766E3,4.507E3,1.024E3,5.482E3,4.374E3,5.677E3,6.366E3,5.963E3,5.67E3,5.278E3,4.696E3,5.916E3,3.215E3,3.9E3,2.866E3,3.015E3,1.492E3,9.49E2,7.5E1,2.859E3,3.507E3,2.655E3,3.308E3,2.754E3,2.916E3,2.708E3,2.57E3,2.343E3,2.353E3,2.122E3,3.794E3,1.437E3,2.463E3,1.446E3,1.569E3,6.23E2,3.26E2],"tree_param":{"num_deleted":"0","num_feature":"77","num_nodes":"49","size_leaf_vector":"1"}},{"base_weights":[1.5653775E-3,-4.6110204E-1,9.413792E-1,-7.8805476E-1,-1.2924689E-1,6.226164E-1,1.691437E0,-9.326846E-1,-5.952469E-1,-2.9186508E-1,5.9427712E-2,4.116338E-1,8.3859897E-1,1.4315845E0,2.366671E0,-1.0437012E-1,-8.306842E-2,-6.429805E-2,-5.117817E-2,-3.7565154E-1,-2.0193487E-1,-2.3629624E-2,1.5489297E-1,3.2833132E-1,5.032226E-2,7.231998E-2,9.86895E-2,1.2991177E-1,1.640887E-1,2.1940727E0,3.4147909E0,-4.2309187E-2,-3.3443753E-2,-2.457361E-2,-1.570688E-2,-6.8373093E-3,1.963513E-3,1.08292755E-2,1.9698132E-2,2.8564874E-2,3.69759E-2,2.0185561E-1,2.4350217E-1,3.196356E-1,6.7426795E-1],"categories":[],"categories_nodes":[],"categories_segments":[],"categories_sizes":[],"default_left":[0,0,0,0,0,0,0,0,0,0,0,0,0,0,0,0,0,0,0,0,0,0,0,0,0,0,0,0,0,0,0,0,0,0,0,0,0,0,0,0,0,0,0,0,0],"id":23,"left_children":[1,3,5,7,9,11,13,15,17,19,21,23,25,27,29,-1,-1,-1,-1,31,33,35,37,39,-1,-1,-1,-1,-1,41,43,-1,-1,-1,-1,-1,-1,-1,-1,-1,-1,-1,-1,-1,-1],"loss_changes":[2.8240354E4,4.7112754E3,5.0992773E3,5.948633E2,6.653167E2,6.729136E2,1.078248E3,1.21731445E2,2.5649414E1,8.180963E1,8.040895E1,4.9793945E1,1.0902881E2,9.658789E1,2.5499023E2,0E0,0E0,0E0,0E0,3.9440308E0,7.077942E0,1.070789E1,6.138283E0,5.1934814E-1,0E0,0E0,0E0,0E0,0E0,1.4957031E1,5.2793457E1,0E0,0E0,0E0,0E0,0E0,0E0,0E0,0E0,0E0,0E0,0E0,0E0,0E0,0E0],"parents":[2147483647,0,0,1,1,2,2,3,3,4,4,5,5,6,6,7,7,8,8,9,9,10,10,11,11,12,12,13,13,14,14,19,19,20,20,21,21,22,22,23,23,29,29,30,30],"right_children":[2,4,6,8,10,12,14,16,18,20,22,24,26,28,30,-1,-1,-1,-1,32,34,36,38,40,-1,-1,-1,-1,-1,42,44,-1,-1,-1,-1,-1,-1,-1,-1,-1,-1,-1,-1,-1,-1],"split_conditions":[1.5E1,7E0,2.5E1,4E0,1.1E1,1.9E1,3.3E1,2E0,6E0,9E0,1.3E1,1.7E1,2.2E1,2.9E1,4.3E1,-1.0437012E-1,-8.306842E-2,-6.429805E-2,-5.117817E-2,8E0,1E1,1.2E1,1.4E1,1.6E1,5.032226E-2,7.231998E-2,9.86895E-2,1.2991177E-1,1.640887E-1,3.7E1,6E1,-4.2309187E-2,-3.3443753E-2,-2.457361E-2,-1.570688E-2,-6.8373093E-3,1.963513E-3,1.08292755E-2,1.9698132E-2,2.8564874E-2,3.69759E-2,2.0185561E-1,2.4350217E-1,3.196356E-1,6.7426795E-1],"split_indices":[21,21,21,21,21,21,21,21,21,21,21,21,21,21,21,0,0,0,0,21,21,21,21,21,0,0,0,0,0,21,21,0,0,0,0,0,0,0,0,0,0,0,0,0,0],"split_type":[0,0,0,0,0,0,0,0,0,0,0,0,0,0,0,0,0,0,0,0,0,0,0,0,0,0,0,0,0,0,0,0,0,0,0,0,0,0,0,0,0,0,0,0,0],"sum_hessian":[6.4934E4,4.3506E4,2.1428E4,2.1899E4,2.1607E4,1.5048E4,6.38E3,1.2481E4,9.418E3,1.1633E4,9.974E3,7.637E3,7.411E3,4.62E3,1.76E3,5.925E3,6.556E3,5.911E3,3.507E3,5.963E3,5.67E3,5.278E3,4.696E3,4.059E3,3.578E3,4.209E3,3.202E3,2.863E3,1.757E3,1.522E3,2.38E2,2.655E3,3.308E3,2.754E3,2.916E3,2.708E3,2.57E3,2.343E3,2.353E3,2.122E3,1.937E3,9.1E2,6.12E2,2.28E2,1E1],"tree_param":{"num_deleted":"0","num_feature":"77","num_nodes":"45","size_leaf_vector":"1"}},{"base_weights":[1.4955421E-3,-4.1511586E-1,8.4780246E-1,-7.094001E-1,-1.1637276E-1,5.872257E-1,1.5946934E0,-8.7559855E-1,-5.724915E-1,-2.6294652E-1,5.3587694E-2,4.0544719E-1,8.3096945E-1,1.3704367E0,2.21468E0,-9.466811E-2,-7.84028E-2,-6.586846E-2,-4.9396526E-2,-3.3826688E-1,-1.819249E-1,-2.1078419E-2,1.3962321E-1,3.3250993E-1,5.3640623E-2,7.575453E-1,1.0265569E-1,1.24509096E-1,1.5604155E-1,2.11257E0,3.909407E-1,-3.807985E-2,-3.010042E-2,-2.211717E-2,-1.4136717E-2,-6.1538727E-3,1.7672278E-3,9.74684E-3,1.7729154E-2,2.5709772E-2,3.7197437E-2,6.883317E-2,8.36453E-2,1.9286819E-1,2.4215959E-1],"categories":[],"categories_nodes":[],"categories_segments":[],"categories_sizes":[],"default_left":[0,0,0,0,0,0,0,0,0,0,0,0,0,0,0,0,0,0,0,0,0,0,0,0,0,0,0,0,0,0,0,0,0,0,0,0,0,0,0,0,0,0,0,0,0],"id":24,"left_children":[1,3,5,7,9,11,13,15,17,19,21,23,25,27,29,-1,-1,-1,-1,31,33,35,37,39,-1,41,-1,-1,-1,43,-1,-1,-1,-1,-1,-1,-1,-1,-1,-1,-1,-1,-1,-1,-1],"loss_changes":[2.2899533E4,3.8165952E3,4.1478076E3,4.8333008E2,5.404005E2,6.9169775E2,7.302617E2,4.611035E1,6.966699E1,6.573395E1,6.5267166E1,7.83595E1,7.8561035E1,6.708838E1,1.8347998E2,0E0,0E0,0E0,0E0,2.5194092E0,5.370224E0,8.716513E0,4.693489E0,1.1223206E1,0E0,1.1270752E1,0E0,0E0,0E0,3.0303223E1,0E0,0E0,0E0,0E0,0E0,0E0,0E0,0E0,0E0,0E0,0E0,0E0,0E0,0E0,0E0],"parents":[2147483647,0,0,1,1,2,2,3,3,4,4,5,5,6,6,7,7,8,8,9,9,10,10,11,11,12,12,13,13,14,14,19,19,20,20,21,21,22,22,23,23,25,25,29,29],"right_children":[2,4,6,8,10,12,14,16,18,20,22,24,26,28,30,-1,-1,-1,-1,32,34,36,38,40,-1,42,-1,-1,-1,44,-1,-1,-1,-1,-1,-1,-1,-1,-1,-1,-1,-1,-1,-1,-1],"split_conditions":[1.5E1,7E0,2.6E1,3E0,1.1E1,2E1,3.4E1,1E0,5E0,9E0,1.3E1,1.8E1,2.4E1,3E1,4.9E1,-9.466811E-2,-7.84028E-2,-6.586846E-2,-4.9396526E-2,8E0,1E1,1.2E1,1.4E1,1.6E1,5.3640623E-2,2.2E1,1.0265569E-1,1.24509096E-1,1.5604155E-1,3.9E1,3.909407E-1,-3.807985E-2,-3.010042E-2,-2.211717E-2,-1.4136717E-2,-6.1538727E-3,1.7672278E-3,9.74684E-3,1.7729154E-2,2.5709772E-2,3.7197437E-2,6.883317E-2,8.36453E-2,1.9286819E-1,2.4215959E-1],"split_indices":[21,21,21,21,21,21,21,21,21,21,21,21,21,21,21,0,0,0,0,21,21,21,21,21,0,21,0,0,0,21,0,0,0,0,0,0,0,0,0,0,0,0,0,0,0],"split_type":[0,0,0,0,0,0,0,0,0,0,0,0,0,0,0,0,0,0,0,0,0,0,0,0,0,0,0,0,0,0,0,0,0,0,0,0,0,0,0,0,0,0,0,0,0],"sum_hessian":[6.4934E4,4.3506E4,2.1428E4,2.1899E4,2.1607E4,1.5897E4,5.531E3,9.856E3,1.2043E4,1.1633E4,9.974E3,9.131E3,6.766E3,4.076E3,1.455E3,5.482E3,4.374E3,5.677E3,6.366E3,5.963E3,5.67E3,5.278E3,4.696E3,5.916E3,3.215E3,4.96E3,1.806E3,2.492E3,1.584E3,1.38E3,7.5E1,2.655E3,3.308E3,2.754E3,2.916E3,2.708E3,2.57E3,2.343E3,2.353E3,2.122E3,3.794E3,2.715E3,2.245E3,8.9E2,4.9E2],"tree_param":{"num_deleted":"0","num_feature":"77","num_nodes":"45","size_leaf_vector":"1"}},{"base_weights":[1.4247337E-3,-3.7372762E-1,7.63558E-1,-6.386103E-1,-1.0478537E-1,5.5024004E-1,1.5065494E0,-7.566072E-1,-4.8111206E-1,-2.3691861E-1,4.8331708E-2,3.946784E-1,8.1834775E-1,1.3492018E0,2.2176409E0,-8.459124E-2,-6.7425564E-2,-5.2080162E-2,-4.112359E-2,-3.0461913E-1,-1.6391511E-1,-1.8781848E-2,1.2587996E-1,2.9943866E-1,5.1355636E-1,7.2263636E-2,9.453783E-2,1.2258915E-1,1.597274E-1,2.0848322E-1,3.7128234E-1,-3.4273308E-2,-2.7091248E-2,-1.9906212E-2,-1.2723572E-2,-5.5386936E-3,1.5905807E-3,8.7726E-3,1.5957026E-2,2.3139974E-2,3.3478707E-2,4.4250637E-2,5.516991E-2],"categories":[],"categories_nodes":[],"categories_segments":[],"categories_sizes":[],"default_left":[0,0,0,0,0,0,0,0,0,0,0,0,0,0,0,0,0,0,0,0,0,0,0,0,0,0,0,0,0,0,0,0,0,0,0,0,0,0,0,0,0,0,0],"id":25,"left_children":[1,3,5,7,9,11,13,15,17,19,21,23,25,27,29,-1,-1,-1,-1,31,33,35,37,39,41,-1,-1,-1,-1,-1,-1,-1,-1,-1,-1,-1,-1,-1,-1,-1,-1,-1,-1],"loss_changes":[1.8570145E4,3.0918564E3,3.374959E3,3.9425488E2,4.390673E2,6.8243164E2,4.9493652E2,7.602637E1,1.6587646E1,5.2764282E1,5.2988617E1,1.1137744E2,5.6717285E1,8.969141E1,1.03268555E2,0E0,0E0,0E0,0E0,1.4326172E0,4.022583E0,7.0986743E0,3.5506516E0,8.491455E0,2.423706E0,0E0,0E0,0E0,0E0,0E0,0E0,0E0,0E0,0E0,0E0,0E0,0E0,0E0,0E0,0E0,0E0,0E0,0E0],"parents":[2147483647,0,0,1,1,2,2,3,3,4,4,5,5,6,6,7,7,8,8,9,9,10,10,11,11,12,12,13,13,14,14,19,19,20,20,21,21,22,22,23,23,24,24],"right_children":[2,4,6,8,10,12,14,16,18,20,22,24,26,28,30,-1,-1,-1,-1,32,34,36,38,40,42,-1,-1,-1,-1,-1,-1,-1,-1,-1,-1,-1,-1,-1,-1,-1,-1,-1,-1],"split_conditions":[1.5E1,7E0,2.7E1,4E0,1.1E1,2.1E1,3.7E1,2E0,6E0,9E0,1.3E1,1.8E1,2.4E1,3.2E1,5E1,-8.459124E-2,-6.7425564E-2,-5.2080162E-2,-4.112359E-2,8E0,1E1,1.2E1,1.4E1,1.6E1,1.9E1,7.2263636E-2,9.453783E-2,1.2258915E-1,1.597274E-1,2.0848322E-1,3.7128234E-1,-3.4273308E-2,-2.7091248E-2,-1.9906212E-2,-1.2723572E-2,-5.5386936E-3,1.5905807E-3,8.7726E-3,1.5957026E-2,2.3139974E-2,3.3478707E-2,4.4250637E-2,5.516991E-2],"split_indices":[21,21,21,21,21,21,21,21,21,21,21,21,21,21,21,0,0,0,0,21,21,21,21,21,21,0,0,0,0,0,0,0,0,0,0,0,0,0,0,0,0,0,0],"split_type":[0,0,0,0,0,0,0,0,0,0,0,0,0,0,0,0,0,0,0,0,0,0,0,0,0,0,0,0,0,0,0,0,0,0,0,0,0,0,0,0,0,0,0],"sum_hessian":[6.4934E4,4.3506E4,2.1428E4,2.1899E4,2.1607E4,1.666E4,4.768E3,1.2481E4,9.418E3,1.1633E4,9.974E3,1.0568E4,6.092E3,3.918E3,8.5E2,5.925E3,6.556E3,5.911E3,3.507E3,5.963E3,5.67E3,5.278E3,4.696E3,5.916E3,4.652E3,3.523E3,2.569E3,2.648E3,1.27E3,7.89E2,6.1E1,2.655E3,3.308E3,2.754E3,2.916E3,2.708E3,2.57E3,2.343E3,2.353E3,2.122E3,3.794E3,1.721E3,2.931E3],"tree_param":{"num_deleted":"0","num_feature":"77","num_nodes":"43","size_leaf_vector":"1"}},{"base_weights":[1.3417711E-3,-3.3647716E-1,6.8767744E-1,-5.748975E-1,-9.435653E-2,4.9553558E-1,1.356704E0,-7.1042085E-1,-4.6310508E-1,-2.1349274E-1,4.3600876E-2,3.5550934E-1,7.3670447E-1,1.1970563E0,1.9289224E0,-7.674544E-2,-6.36495E-2,-5.3366255E-2,-3.9853964E-2,-2.7433535E-1,-1.477056E-1,-1.6714927E-2,1.1351008E-1,2.6967365E-1,4.6243697E-1,6.5039314E-2,8.508774E-2,1.0787984E-1,1.3680127E-1,1.8791536E0,5.43678E-1,-3.0847285E-2,-2.4382962E-2,-1.7916327E-2,-1.1451615E-2,-4.985004E-3,1.4315698E-3,7.895689E-3,1.4362017E-2,2.3650993E-2,3.3661395E-2,3.982816E-2,4.9654786E-2,1.6965482E-1,2.275375E-1],"categories":[],"categories_nodes":[],"categories_segments":[],"categories_sizes":[],"default_left":[0,0,0,0,0,0,0,0,0,0,0,0,0,0,0,0,0,0,0,0,0,0,0,0,0,0,0,0,0,0,0,0,0,0,0,0,0,0,0,0,0,0,0,0,0],"id":26,"left_children":[1,3,5,7,9,11,13,15,17,19,21,23,25,27,29,-1,-1,-1,-1,31,33,35,37,39,41,-1,-1,-1,-1,43,-1,-1,-1,-1,-1,-1,-1,-1,-1,-1,-1,-1,-1,-1,-1],"loss_changes":[1.5059389E4,2.5047598E3,2.73546E3,3.1973096E2,3.5685132E2,5.514575E2,4.020957E2,2.7031738E1,4.5332764E1,4.230603E1,4.303073E1,8.955859E1,4.447705E1,4.9768555E1,9.557056E1,0E0,0E0,0E0,0E0,6.1260986E-1,2.9635773E0,5.7839417E0,2.649643E0,7.3248596E0,1.03656E0,0E0,0E0,0E0,0E0,2.985791E1,0E0,0E0,0E0,0E0,0E0,0E0,0E0,0E0,0E0,0E0,0E0,0E0,0E0,0E0,0E0],"parents":[2147483647,0,0,1,1,2,2,3,3,4,4,5,5,6,6,7,7,8,8,9,9,10,10,11,11,12,12,13,13,14,14,19,19,20,20,21,21,22,22,23,23,24,24,29,29],"right_children":[2,4,6,8,10,12,14,16,18,20,22,24,26,28,30,-1,-1,-1,-1,32,34,36,38,40,42,-1,-1,-1,-1,44,-1,-1,-1,-1,-1,-1,-1,-1,-1,-1,-1,-1,-1,-1,-1],"split_conditions":[1.5E1,7E0,2.7E1,3E0,1.1E1,2.1E1,3.6E1,1E0,5E0,9E0,1.3E1,1.8E1,2.4E1,3.1E1,6E1,-7.674544E-2,-6.36495E-2,-5.3366255E-2,-3.9853964E-2,8E0,1E1,1.2E1,1.4E1,1.7E1,1.9E1,6.5039314E-2,8.508774E-2,1.0787984E-1,1.3680127E-1,4.2E1,5.43678E-1,-3.0847285E-2,-2.4382962E-2,-1.7916327E-2,-1.1451615E-2,-4.985004E-3,1.4315698E-3,7.895689E-3,1.4362017E-2,2.3650993E-2,3.3661395E-2,3.982816E-2,4.9654786E-2,1.6965482E-1,2.275375E-1],"split_indices":[21,21,21,21,21,21,21,21,21,21,21,21,21,21,21,0,0,0,0,21,21,21,21,21,21,0,0,0,0,21,0,0,0,0,0,0,0,0,0,0,0,0,0,0,0],"split_type":[0,0,0,0,0,0,0,0,0,0,0,0,0,0,0,0,0,0,0,0,0,0,0,0,0,0,0,0,0,0,0,0,0,0,0,0,0,0,0,0,0,0,0,0,0],"sum_hessian":[6.4934E4,4.3506E4,2.1428E4,2.1899E4,2.1607E4,1.666E4,4.768E3,9.856E3,1.2043E4,1.1633E4,9.974E3,1.0568E4,6.092E3,3.744E3,1.024E3,5.482E3,4.374E3,5.677E3,6.366E3,5.963E3,5.67E3,5.278E3,4.696E3,5.916E3,4.652E3,3.523E3,2.569E3,2.252E3,1.492E3,1.014E3,1E1,2.655E3,3.308E3,2.754E3,2.916E3,2.708E3,2.57E3,2.343E3,2.353E3,4.059E3,1.857E3,1.721E3,2.931E3,7.15E2,2.99E2],"tree_param":{"num_deleted":"0","num_feature":"77","num_nodes":"45","size_leaf_vector":"1"}},{"base_weights":[1.287528E-3,-3.0295128E-1,6.194459E-1,-5.175554E-1,-8.497024E-2,4.2853415E-1,1.1661733E0,-6.138054E-1,-3.8888893E-1,-1.9240865E-1,3.9342877E-2,2.9549655E-1,6.06526E-1,9.9922556E-1,1.6259809E0,-6.85582E-2,-5.4731745E-2,-4.219075E-2,-3.302815E-2,-2.4707906E-1,-1.3311632E-1,-1.4854703E-2,1.0237666E-1,2.1286463E-2,3.5959867E-1,5.2990016E-2,7.07088E-2,8.803778E-2,1.1099763E-1,1.5158612E-1,2.5713103E0,-2.776374E-2,-2.1945441E-2,-1.6125312E-2,-1.0306835E-2,-4.4867024E-3,1.288479E-3,7.1064793E-3,1.2926394E-2,3.029712E-2,3.8909316E-2,2.3358221E-1,6.509424E-1],"categories":[],"categories_nodes":[],"categories_segments":[],"categories_sizes":[],"default_left":[0,0,0,0,0,0,0,0,0,0,0,0,0,0,0,0,0,0,0,0,0,0,0,0,0,0,0,0,0,0,0,0,0,0,0,0,0,0,0,0,0,0,0],"id":27,"left_children":[1,3,5,7,9,11,13,15,17,19,21,23,25,27,29,-1,-1,-1,-1,31,33,35,37,-1,39,-1,-1,-1,-1,-1,41,-1,-1,-1,-1,-1,-1,-1,-1,-1,-1,-1,-1],"loss_changes":[1.2215533E4,2.0291724E3,2.2202412E3,2.6094727E2,2.9013474E2,3.6725928E2,3.9678076E2,4.686328E1,1.0565674E1,3.3877197E1,3.495412E1,4.2570007E1,3.9399414E1,3.2782715E1,1.0679932E2,0E0,0E0,0E0,0E0,2.7160645E-3,2.134735E0,4.715308E0,1.9418831E0,0E0,1.4343262E0,0E0,0E0,0E0,0E0,0E0,2.710315E1,0E0,0E0,0E0,0E0,0E0,0E0,0E0,0E0,0E0,0E0,0E0,0E0],"parents":[2147483647,0,0,1,1,2,2,3,3,4,4,5,5,6,6,7,7,8,8,9,9,10,10,11,11,12,12,13,13,14,14,19,19,20,20,21,21,22,22,24,24,30,30],"right_children":[2,4,6,8,10,12,14,16,18,20,22,24,26,28,30,-1,-1,-1,-1,32,34,36,38,-1,40,-1,-1,-1,-1,-1,42,-1,-1,-1,-1,-1,-1,-1,-1,-1,-1,-1,-1],"split_conditions":[1.5E1,7E0,2.6E1,4E0,1.1E1,2E1,3.4E1,2E0,6E0,9E0,1.3E1,1.7E1,2.3E1,2.9E1,4.5E1,-6.85582E-2,-5.4731745E-2,-4.219075E-2,-3.302815E-2,8E0,1E1,1.2E1,1.4E1,2.1286463E-2,1.8E1,5.2990016E-2,7.07088E-2,8.803778E-2,1.1099763E-1,1.5158612E-1,6.2E1,-2.776374E-2,-2.1945441E-2,-1.6125312E-2,-1.0306835E-2,-4.4867024E-3,1.288479E-3,7.1064793E-3,1.2926394E-2,3.029712E-2,3.8909316E-2,2.3358221E-1,6.509424E-1],"split_indices":[21,21,21,21,21,21,21,21,21,21,21,21,21,21,21,0,0,0,0,21,21,21,21,0,21,0,0,0,0,0,21,0,0,0,0,0,0,0,0,0,0,0,0],"split_type":[0,0,0,0,0,0,0,0,0,0,0,0,0,0,0,0,0,0,0,0,0,0,0,0,0,0,0,0,0,0,0,0,0,0,0,0,0,0,0,0,0,0,0],"sum_hessian":[6.4934E4,4.3506E4,2.1428E4,2.1899E4,2.1607E4,1.5897E4,5.531E3,1.2481E4,9.418E3,1.1633E4,9.974E3,9.131E3,6.766E3,4.076E3,1.455E3,5.925E3,6.556E3,5.911E3,3.507E3,5.963E3,5.67E3,5.278E3,4.696E3,4.059E3,5.072E3,3.9E3,2.866E3,2.014E3,2.062E3,1.315E3,1.4E2,2.655E3,3.308E3,2.754E3,2.916E3,2.708E3,2.57E3,2.343E3,2.353E3,1.857E3,3.215E3,1.36E2,4E0],"tree_param":{"num_deleted":"0","num_feature":"77","num_nodes":"43","size_leaf_vector":"1"}},{"base_weights":[1.223382E-3,-2.7277696E-1,5.5798906E-1,-4.6594596E-1,-7.6522134E-2,4.016308E-1,1.1020291E0,-5.764572E-1,-3.7463284E-1,-1.7343208E-1,3.5510633E-2,2.8771776E-1,5.975187E-1,9.947642E-1,1.706786E0,-6.221773E-2,-5.1674068E-2,-4.3232467E-2,-3.2155465E-2,-2.2254737E-2,-1.1998527E-1,-1.3180205E-2,9.235616E-2,2.1877483E-1,3.7317827E-2,5.2706815E-2,6.899974E-2,8.910733E-2,1.180587E-1,1.6160767E-1,3.4786713E-1,-1.4513329E-2,-9.276457E-3,-4.0381644E-3,1.1596876E-3,6.3961046E-3,1.1634333E-2,1.633547E-2,2.4708526E-2],"categories":[],"categories_nodes":[],"categories_segments":[],"categories_sizes":[],"default_left":[0,0,0,0,0,0,0,0,0,0,0,0,0,0,0,0,0,0,0,0,0,0,0,0,0,0,0,0,0,0,0,0,0,0,0,0,0,0,0],"id":28,"left_children":[1,3,5,7,9,11,13,15,17,19,21,23,25,27,29,-1,-1,-1,-1,-1,31,33,35,37,-1,-1,-1,-1,-1,-1,-1,-1,-1,-1,-1,-1,-1,-1,-1],"loss_changes":[9.909097E3,1.6439053E3,1.8073813E3,2.1126904E2,2.3598537E2,3.627522E2,2.8064746E2,1.5201416E1,2.9203003E1,2.708786E1,2.8402344E1,5.6270325E1,2.7162598E1,5.659497E1,5.642151E1,0E0,0E0,0E0,0E0,0E0,1.489624E0,3.8462155E0,1.3887291E0,5.138794E0,0E0,0E0,0E0,0E0,0E0,0E0,0E0,0E0,0E0,0E0,0E0,0E0,0E0,0E0,0E0],"parents":[2147483647,0,0,1,1,2,2,3,3,4,4,5,5,6,6,7,7,8,8,9,9,10,10,11,11,12,12,13,13,14,14,20,20,21,21,22,22,23,23],"right_children":[2,4,6,8,10,12,14,16,18,20,22,24,26,28,30,-1,-1,-1,-1,-1,32,34,36,38,-1,-1,-1,-1,-1,-1,-1,-1,-1,-1,-1,-1,-1,-1,-1],"split_conditions":[1.5E1,7E0,2.7E1,3E0,1.1E1,2.1E1,3.8E1,1E0,5E0,9E0,1.3E1,1.8E1,2.4E1,3.2E1,5.3E1,-6.221773E-2,-5.1674068E-2,-4.3232467E-2,-3.2155465E-2,-2.2254737E-2,1E1,1.2E1,1.4E1,1.6E1,3.7317827E-2,5.2706815E-2,6.899974E-2,8.910733E-2,1.180587E-1,1.6160767E-1,3.4786713E-1,-1.4513329E-2,-9.276457E-3,-4.0381644E-3,1.1596876E-3,6.3961046E-3,1.1634333E-2,1.633547E-2,2.4708526E-2],"split_indices":[21,21,21,21,21,21,21,21,21,21,21,21,21,21,21,0,0,0,0,0,21,21,21,21,0,0,0,0,0,0,0,0,0,0,0,0,0,0,0],"split_type":[0,0,0,0,0,0,0,0,0,0,0,0,0,0,0,0,0,0,0,0,0,0,0,0,0,0,0,0,0,0,0,0,0,0,0,0,0,0,0],"sum_hessian":[6.4934E4,4.3506E4,2.1428E4,2.1899E4,2.1607E4,1.666E4,4.768E3,9.856E3,1.2043E4,1.1633E4,9.974E3,1.0568E4,6.092E3,4.066E3,7.02E2,5.482E3,4.374E3,5.677E3,6.366E3,5.963E3,5.67E3,5.278E3,4.696E3,5.916E3,4.652E3,3.523E3,2.569E3,2.648E3,1.418E3,6.75E2,2.7E1,2.754E3,2.916E3,2.708E3,2.57E3,2.343E3,2.353E3,2.122E3,3.794E3],"tree_param":{"num_deleted":"0","num_feature":"77","num_nodes":"39","size_leaf_vector":"1"}},{"base_weights":[1.1579868E-3,-2.4559624E-1,5.026063E-1,-4.1949698E-1,-6.887135E-2,3.3112386E-1,9.0538585E-1,-4.9798948E-1,-3.14373E-1,-1.5626474E-1,3.2061327E-2,2.176217E-1,4.4669297E-1,7.6130956E-1,1.2772603E0,-5.5997092E-2,-4.4794057E-2,-3.4185566E-2,-2.6511649E-2,-2.0029615E-1,-1.08167455E-1,-1.1673448E-2,8.333742E-2,1.7125756E-2,2.6736205E-2,3.8285356E-2,5.2734155E-2,6.684739E-2,8.483214E-2,1.1694788E-1,1.9169005E0,-2.2763744E-2,-1.7526781E-2,-1.30625535E-2,-8.349136E-3,-3.6345278E-3,1.0437659E-3,5.7567484E-3,1.047144E-2,1.7854781E-1,5.710376E-1],"categories":[],"categories_nodes":[],"categories_segments":[],"categories_sizes":[],"default_left":[0,0,0,0,0,0,0,0,0,0,0,0,0,0,0,0,0,0,0,0,0,0,0,0,0,0,0,0,0,0,0,0,0,0,0,0,0,0,0,0,0],"id":29,"left_children":[1,3,5,7,9,11,13,15,17,19,21,23,25,27,29,-1,-1,-1,-1,31,33,35,37,-1,-1,-1,-1,-1,-1,-1,39,-1,-1,-1,-1,-1,-1,-1,-1,-1,-1],"loss_changes":[8.0373926E3,1.3321699E3,1.4674282E3,1.7242627E2,1.9184793E2,1.9066248E2,3.205249E2,2.8390625E1,6.59021E0,2.1532074E1,2.3087034E1,1.3182556E1,2.8857422E1,2.1592041E1,8.830029E1,0E0,0E0,0E0,0E0,1.2252808E-2,9.906616E-1,3.1392634E0,9.586525E-1,0E0,0E0,0E0,0E0,0E0,0E0,0E0,3.3998535E1,0E0,0E0,0E0,0E0,0E0,0E0,0E0,0E0,0E0,0E0],"parents":[2147483647,0,0,1,1,2,2,3,3,4,4,5,5,6,6,7,7,8,8,9,9,10,10,11,11,12,12,13,13,14,14,19,19,20,20,21,21,22,22,30,30],"right_children":[2,4,6,8,10,12,14,16,18,20,22,24,26,28,30,-1,-1,-1,-1,32,34,36,38,-1,-1,-1,-1,-1,-1,-1,40,-1,-1,-1,-1,-1,-1,-1,-1,-1,-1],"split_conditions":[1.5E1,7E0,2.5E1,4E0,1.1E1,1.9E1,3.3E1,1E0,6E0,9E0,1.3E1,1.7E1,2.2E1,2.8E1,4.3E1,-5.5997092E-2,-4.4794057E-2,-3.4185566E-2,-2.6511649E-2,8E0,1E1,1.2E1,1.4E1,1.7125756E-2,2.6736205E-2,3.8285356E-2,5.2734155E-2,6.684739E-2,8.483214E-2,1.1694788E-1,6.2E1,-2.2763744E-2,-1.7526781E-2,-1.30625535E-2,-8.349136E-3,-3.6345278E-3,1.0437659E-3,5.7567484E-3,1.047144E-2,1.7854781E-1,